<?xml version="1.0"?>
<MethodSetup Method="MLP::MLP">
  <GeneralInfo>
    <Info name="TMVA Release" value="4.2.1 [262657]"/>
    <Info name="ROOT Release" value="6.16/00 [397312]"/>
    <Info name="Creator" value="wahid"/>
    <Info name="Date" value="Fri Jul  5 19:06:19 2019"/>
    <Info name="Host" value="Linux T470-wa 4.14.39-1-MANJARO #1 SMP PREEMPT Wed May 2 19:03:39 UTC 2018 x86_64 GNU/Linux"/>
    <Info name="Dir" value="/home/wahid/Wahid/University/analisi_statistica/esercizi/es7"/>
    <Info name="Training events" value="16000"/>
    <Info name="TrainingTime" value="1.20956640e+01"/>
    <Info name="AnalysisType" value="Classification"/>
  </GeneralInfo>
  <Options>
    <Option name="NCycles" modified="Yes">200</Option>
    <Option name="HiddenLayers" modified="Yes">5</Option>
    <Option name="NeuronType" modified="Yes">tanh</Option>
    <Option name="RandomSeed" modified="No">1</Option>
    <Option name="EstimatorType" modified="No">CE</Option>
    <Option name="NeuronInputType" modified="No">sum</Option>
    <Option name="V" modified="Yes">False</Option>
    <Option name="VerbosityLevel" modified="No">Default</Option>
    <Option name="VarTransform" modified="Yes">Gauss</Option>
    <Option name="H" modified="Yes">False</Option>
    <Option name="CreateMVAPdfs" modified="No">False</Option>
    <Option name="IgnoreNegWeightsInTraining" modified="No">False</Option>
    <Option name="TrainingMethod" modified="Yes">BP</Option>
    <Option name="LearningRate" modified="No">2.000000e-02</Option>
    <Option name="DecayRate" modified="No">1.000000e-02</Option>
    <Option name="TestRate" modified="Yes">15</Option>
    <Option name="EpochMonitoring" modified="No">False</Option>
    <Option name="Sampling" modified="No">1.000000e+00</Option>
    <Option name="SamplingEpoch" modified="No">1.000000e+00</Option>
    <Option name="SamplingImportance" modified="No">1.000000e+00</Option>
    <Option name="SamplingTraining" modified="No">True</Option>
    <Option name="SamplingTesting" modified="Yes">True</Option>
    <Option name="ResetStep" modified="No">50</Option>
    <Option name="Tau" modified="No">3.000000e+00</Option>
    <Option name="BPMode" modified="No">sequential</Option>
    <Option name="BatchSize" modified="No">-1</Option>
    <Option name="ConvergenceImprove" modified="Yes">1.000000e-05</Option>
    <Option name="ConvergenceTests" modified="Yes">75</Option>
    <Option name="UseRegulator" modified="No">False</Option>
    <Option name="UpdateLimit" modified="No">10000</Option>
    <Option name="CalculateErrors" modified="No">False</Option>
    <Option name="WeightRange" modified="No">1.000000e+00</Option>
  </Options>
  <Variables NVar="2">
    <Variable VarIndex="0" Expression="x" Label="x" Title="x" Unit="" Internal="x" Type="D" Min="-1.11365664e+00" Max="7.72294426e+00"/>
    <Variable VarIndex="1" Expression="y" Label="y" Title="y" Unit="" Internal="y" Type="D" Min="-1.02933931e+00" Max="7.55919361e+00"/>
  </Variables>
  <Spectators NSpec="0"/>
  <Classes NClass="2">
    <Class Name="Signal" Index="0"/>
    <Class Name="Background" Index="1"/>
  </Classes>
  <Transformations NTransformations="1">
    <Transform Name="Gauss" FlatOrGauss="Gauss">
      <Selection>
        <Input NInputs="2">
          <Input Type="Variable" Label="x" Expression="x"/>
          <Input Type="Variable" Label="y" Expression="y"/>
        </Input>
        <Output NOutputs="2">
          <Output Type="Variable" Label="x" Expression="x"/>
          <Output Type="Variable" Label="y" Expression="y"/>
        </Output>
      </Selection>
      <Variable VarIndex="0">
        <CumulativePDF_cls0>
          <PDF Name="GaussTransform var0 cls0" MinNSmooth="0" MaxNSmooth="0" InterpolMethod="1" KDE_type="0" KDE_iter="1" KDE_border="1" KDE_finefactor="0.0000000000000000e+00">
            <Histogram Name="Cumulative_Var0_cls0_original" NBins="801" XMin="-1.1137566566467285e+00" XMax="1.0653505325317383e+00" HasEquidistantBins="0">
              9.05542518e-04 2.02966435e-03 3.27088218e-03 4.52771271e-03 5.77673689e-03 7.02576106e-03 8.27478524e-03 9.52380989e-03 1.07728336e-02 1.20218582e-02 1.32708820e-02 1.45199066e-02 1.57689303e-02 1.70179550e-02 1.82669796e-02 1.95160024e-02 2.07650270e-02 2.20140517e-02 2.32630763e-02 2.45120991e-02 2.57611237e-02 2.70101484e-02 2.82591730e-02 2.95081958e-02 3.07572205e-02 3.20062451e-02 3.32552679e-02 3.45042944e-02 3.57533172e-02 3.70023437e-02 3.82513665e-02 3.95003892e-02 4.07494158e-02 4.19984385e-02 4.32474613e-02 4.44964878e-02 4.57455106e-02 4.69945371e-02 4.82435599e-02 4.94925827e-02 5.07416092e-02 5.19906320e-02 5.32396547e-02 5.44886813e-02 5.57377040e-02 5.69867305e-02 5.82357533e-02 5.94847761e-02 6.07338026e-02 6.19828254e-02 6.32318482e-02 6.44808710e-02 6.57299012e-02 6.69789240e-02 6.82279468e-02 6.94769695e-02 7.07259923e-02 7.19750226e-02 7.32240453e-02 7.44730681e-02 7.57220909e-02 7.69711137e-02 7.82201439e-02 7.94691667e-02 8.07181895e-02 8.19672123e-02 8.32162350e-02 8.44652578e-02 8.57142881e-02 8.69633108e-02 8.82123336e-02 8.94613564e-02 9.07103792e-02 9.19594094e-02 9.32084322e-02 9.44574550e-02 9.57064778e-02 9.69555005e-02 9.82045308e-02 9.94535536e-02 1.00702576e-01 1.01951599e-01 1.03200622e-01 1.04449652e-01 1.05698675e-01 1.06947698e-01 1.08196720e-01 1.09445743e-01 1.10694766e-01 1.11943796e-01 1.13192819e-01 1.14441842e-01 1.15690865e-01 1.16939887e-01 1.18188918e-01 1.19437940e-01 1.20686963e-01 1.21935986e-01 1.23185009e-01 1.24434039e-01 1.25683054e-01 1.26932085e-01 1.28181115e-01 1.29430130e-01 1.30679160e-01 1.31928176e-01 1.33177206e-01 1.34426236e-01 1.35675251e-01 1.36924282e-01 1.38173297e-01 1.39422327e-01 1.40671358e-01 1.41920373e-01 1.43169403e-01 1.44418418e-01 1.45667449e-01 1.46916479e-01 1.48165494e-01 1.49414524e-01 1.50663540e-01 1.51912570e-01 1.53161585e-01 1.54410616e-01 1.55659646e-01 1.56908661e-01 1.58157691e-01 1.59406707e-01 1.60655737e-01 1.61904767e-01 1.63153782e-01 1.64402813e-01 1.65651828e-01 1.66900858e-01 1.68149889e-01 1.69398904e-01 1.70647934e-01 1.71896949e-01 1.73145980e-01 1.74395010e-01 1.75644025e-01 1.76893055e-01 1.78142071e-01 1.79391101e-01 1.80640131e-01 1.81889147e-01 1.83138177e-01 1.84387192e-01 1.85636222e-01 1.86885253e-01 1.88134268e-01 1.89383298e-01 1.90632313e-01 1.91881344e-01 1.93130374e-01 1.94379389e-01 1.95628420e-01 1.96877435e-01 1.98126465e-01 1.99375495e-01 2.00624511e-01 2.01873541e-01 2.03122556e-01 2.04371586e-01 2.05620602e-01 2.06869632e-01 2.08118662e-01 2.09367678e-01 2.10616708e-01 2.11865723e-01 2.13114753e-01 2.14363784e-01 2.15612799e-01 2.16861829e-01 2.18110844e-01 2.19359875e-01 2.20608905e-01 2.21857920e-01 2.23106951e-01 2.24355966e-01 2.25604996e-01 2.26854026e-01 2.28103042e-01 2.29352072e-01 2.30601087e-01 2.31850117e-01 2.33099148e-01 2.34348163e-01 2.35597193e-01 2.36846209e-01 2.38095239e-01 2.39344269e-01 2.40593284e-01 2.41842315e-01 2.43091330e-01 2.44340360e-01 2.45589390e-01 2.46838406e-01 2.48087436e-01 2.49336451e-01 2.50585467e-01 2.51834512e-01 2.53083527e-01 2.54332542e-01 2.55581588e-01 2.56830603e-01 2.58079618e-01 2.59328663e-01 2.60577679e-01 2.61826694e-01 2.63075709e-01 2.64324754e-01 2.65573770e-01 2.66822785e-01 2.68071830e-01 2.69320846e-01 2.70569861e-01 2.71818906e-01 2.73067921e-01 2.74316937e-01 2.75565952e-01 2.76814997e-01 2.78064013e-01 2.79313028e-01 2.80562073e-01 2.81811088e-01 2.83060104e-01 2.84309119e-01 2.85558164e-01 2.86807179e-01 2.88056195e-01 2.89305240e-01 2.90554255e-01 2.91803271e-01 2.93052316e-01 2.94301331e-01 2.95550346e-01 2.96799362e-01 2.98048407e-01 2.99297422e-01 3.00546438e-01 3.01795483e-01 3.03044498e-01 3.04293513e-01 3.05542558e-01 3.06791574e-01 3.08040589e-01 3.09289604e-01 3.10538650e-01 3.11787665e-01 3.13036680e-01 3.14285725e-01 3.15534741e-01 3.16783756e-01 3.18032801e-01 3.19281816e-01 3.20530832e-01 3.21779847e-01 3.23028892e-01 3.24277908e-01 3.25526923e-01 3.26775968e-01 3.28024983e-01 3.29273999e-01 3.30523014e-01 3.31772059e-01 3.33021075e-01 3.34270090e-01 3.35519135e-01 3.36768150e-01 3.38017166e-01 3.39266211e-01 3.40515226e-01 3.41764241e-01 3.43013257e-01 3.44262302e-01 3.45511317e-01 3.46760333e-01 3.48009378e-01 3.49258393e-01 3.50507408e-01 3.51756454e-01 3.53005469e-01 3.54254484e-01 3.55503500e-01 3.56752545e-01 3.58001560e-01 3.59250575e-01 3.60499620e-01 3.61748636e-01 3.62997651e-01 3.64246696e-01 3.65495712e-01 3.66744727e-01 3.67993742e-01 3.69242787e-01 3.70491803e-01 3.71740818e-01 3.72989863e-01 3.74238878e-01 3.75487894e-01 3.76736939e-01 3.77985954e-01 3.79234970e-01 3.80483985e-01 3.81733030e-01 3.82982045e-01 3.84231061e-01 3.85480106e-01 3.86729121e-01 3.87978137e-01 3.89227152e-01 3.90476197e-01 3.91725212e-01 3.92974228e-01 3.94223273e-01 3.95472288e-01 3.96721303e-01 3.97970349e-01 3.99219364e-01 4.00468379e-01 4.01717395e-01 4.02966440e-01 4.04215455e-01 4.05464470e-01 4.06713516e-01 4.07962531e-01 4.09211546e-01 4.10460591e-01 4.11709607e-01 4.12958622e-01 4.14207637e-01 4.15456682e-01 4.16705698e-01 4.17954713e-01 4.19203758e-01 4.20452774e-01 4.21701789e-01 4.22950834e-01 4.24199849e-01 4.25448865e-01 4.26697880e-01 4.27946925e-01 4.29195940e-01 4.30444956e-01 4.31694001e-01 4.32943016e-01 4.34192032e-01 4.35441047e-01 4.36690092e-01 4.37939107e-01 4.39188123e-01 4.40437168e-01 4.41686183e-01 4.42935199e-01 4.44184244e-01 4.45433259e-01 4.46682274e-01 4.47931290e-01 4.49180335e-01 4.50429350e-01 4.51678365e-01 4.52927411e-01 4.54176426e-01 4.55425441e-01 4.56674486e-01 4.57923502e-01 4.59172517e-01 4.60421532e-01 4.61670578e-01 4.62919593e-01 4.64168608e-01 4.65417653e-01 4.66666669e-01 4.67915684e-01 4.69164729e-01 4.70413744e-01 4.71662760e-01 4.72911775e-01 4.74160820e-01 4.75409836e-01 4.76658851e-01 4.77907896e-01 4.79156911e-01 4.80405927e-01 4.81654972e-01 4.82903987e-01 4.84153003e-01 4.85402018e-01 4.86651063e-01 4.87900078e-01 4.89149094e-01 4.90398139e-01 4.91647154e-01 4.92896169e-01 4.94145185e-01 4.95394230e-01 4.96643245e-01 4.97892261e-01 4.99141306e-01 5.00390291e-01 5.01639366e-01 5.02888381e-01 5.04137397e-01 5.05386412e-01 5.06635427e-01 5.07884443e-01 5.09133518e-01 5.10382533e-01 5.11631548e-01 5.12880564e-01 5.14129579e-01 5.15378594e-01 5.16627610e-01 5.17876685e-01 5.19125700e-01 5.20374715e-01 5.21623731e-01 5.22872746e-01 5.24121761e-01 5.25370777e-01 5.26619852e-01 5.27868867e-01 5.29117882e-01 5.30366898e-01 5.31615913e-01 5.32864928e-01 5.34114003e-01 5.35363019e-01 5.36612034e-01 5.37861049e-01 5.39110065e-01 5.40359080e-01 5.41608095e-01 5.42857170e-01 5.44106185e-01 5.45355201e-01 5.46604216e-01 5.47853231e-01 5.49102247e-01 5.50351262e-01 5.51600337e-01 5.52849352e-01 5.54098368e-01 5.55347383e-01 5.56596398e-01 5.57845414e-01 5.59094429e-01 5.60343504e-01 5.61592519e-01 5.62841535e-01 5.64090550e-01 5.65339565e-01 5.66588581e-01 5.67837656e-01 5.69086671e-01 5.70335686e-01 5.71584702e-01 5.72833717e-01 5.74082732e-01 5.75331748e-01 5.76580822e-01 5.77829838e-01 5.79078853e-01 5.80327868e-01 5.81576884e-01 5.82825899e-01 5.84074914e-01 5.85323989e-01 5.86573005e-01 5.87822020e-01 5.89071035e-01 5.90320051e-01 5.91569066e-01 5.92818081e-01 5.94067156e-01 5.95316172e-01 5.96565187e-01 5.97814202e-01 5.99063218e-01 6.00312233e-01 6.01561308e-01 6.02810323e-01 6.04059339e-01 6.05308354e-01 6.06557369e-01 6.07806385e-01 6.09055400e-01 6.10304475e-01 6.11553490e-01 6.12802505e-01 6.14051521e-01 6.15300536e-01 6.16549551e-01 6.17798567e-01 6.19047642e-01 6.20296657e-01 6.21545672e-01 6.22794688e-01 6.24043703e-01 6.25292718e-01 6.26541793e-01 6.27790809e-01 6.29039824e-01 6.30288839e-01 6.31537855e-01 6.32786870e-01 6.34035885e-01 6.35284960e-01 6.36533976e-01 6.37782991e-01 6.39032006e-01 6.40281022e-01 6.41530037e-01 6.42779052e-01 6.44028127e-01 6.45277143e-01 6.46526158e-01 6.47775173e-01 6.49024189e-01 6.50273204e-01 6.51522219e-01 6.52771294e-01 6.54020309e-01 6.55269325e-01 6.56518340e-01 6.57767355e-01 6.59016371e-01 6.60265446e-01 6.61514461e-01 6.62763476e-01 6.64012492e-01 6.65261507e-01 6.66510522e-01 6.67759538e-01 6.69008613e-01 6.70257628e-01 6.71506643e-01 6.72755659e-01 6.74004674e-01 6.75253689e-01 6.76502705e-01 6.77751780e-01 6.79000795e-01 6.80249810e-01 6.81498826e-01 6.82747841e-01 6.83996856e-01 6.85245931e-01 6.86494946e-01 6.87743962e-01 6.88992977e-01 6.90241992e-01 6.91491008e-01 6.92740023e-01 6.93989098e-01 6.95238113e-01 6.96487129e-01 6.97736144e-01 6.98985159e-01 7.00234175e-01 7.01483190e-01 7.02732265e-01 7.03981280e-01 7.05230296e-01 7.06479311e-01 7.07728326e-01 7.08977342e-01 7.10226357e-01 7.11475432e-01 7.12724447e-01 7.13973463e-01 7.15222478e-01 7.16471493e-01 7.17720509e-01 7.18969584e-01 7.20218599e-01 7.21467614e-01 7.22716630e-01 7.23965645e-01 7.25214660e-01 7.26463675e-01 7.27712750e-01 7.28961766e-01 7.30210781e-01 7.31459796e-01 7.32708812e-01 7.33957827e-01 7.35206842e-01 7.36455917e-01 7.37704933e-01 7.38953948e-01 7.40202963e-01 7.41451979e-01 7.42700994e-01 7.43950009e-01 7.45199084e-01 7.46448100e-01 7.47697115e-01 7.48946130e-01 7.50195146e-01 7.51444161e-01 7.52693236e-01 7.53942251e-01 7.55191267e-01 7.56440282e-01 7.57689297e-01 7.58938313e-01 7.60187328e-01 7.61436403e-01 7.62685418e-01 7.63934433e-01 7.65183449e-01 7.66432464e-01 7.67681479e-01 7.68930495e-01 7.70179570e-01 7.71428585e-01 7.72677600e-01 7.73926616e-01 7.75175631e-01 7.76424646e-01 7.77673721e-01 7.78922737e-01 7.80171752e-01 7.81420767e-01 7.82669783e-01 7.83918798e-01 7.85167813e-01 7.86416888e-01 7.87665904e-01 7.88914919e-01 7.90163934e-01 7.91412950e-01 7.92661965e-01 7.93910980e-01 7.95160055e-01 7.96409070e-01 7.97658086e-01 7.98907101e-01 8.00156116e-01 8.01405132e-01 8.02654147e-01 8.03903222e-01 8.05152237e-01 8.06401253e-01 8.07650268e-01 8.08899283e-01 8.10148299e-01 8.11397374e-01 8.12646389e-01 8.13895404e-01 8.15144420e-01 8.16393435e-01 8.17642450e-01 8.18891466e-01 8.20140541e-01 8.21389556e-01 8.22638571e-01 8.23887587e-01 8.25136602e-01 8.26385617e-01 8.27634633e-01 8.28883708e-01 8.30132723e-01 8.31381738e-01 8.32630754e-01 8.33879769e-01 8.35128784e-01 8.36377859e-01 8.37626874e-01 8.38875890e-01 8.40124905e-01 8.41373920e-01 8.42622936e-01 8.43871951e-01 8.45121026e-01 8.46370041e-01 8.47619057e-01 8.48868072e-01 8.50117087e-01 8.51366103e-01 8.52615118e-01 8.53864193e-01 8.55113208e-01 8.56362224e-01 8.57611239e-01 8.58860254e-01 8.60109270e-01 8.61358285e-01 8.62607360e-01 8.63856375e-01 8.65105391e-01 8.66354406e-01 8.67603421e-01 8.68852437e-01 8.70101511e-01 8.71350527e-01 8.72599542e-01 8.73848557e-01 8.75097573e-01 8.76346588e-01 8.77595603e-01 8.78844678e-01 8.80093694e-01 8.81342709e-01 8.82591724e-01 8.83840740e-01 8.85089755e-01 8.86338770e-01 8.87587845e-01 8.88836861e-01 8.90085876e-01 8.91334891e-01 8.92583907e-01 8.93832922e-01 8.95081997e-01 8.96331012e-01 8.97580028e-01 8.98829043e-01 9.00078058e-01 9.01327074e-01 9.02576089e-01 9.03825164e-01 9.05074179e-01 9.06323195e-01 9.07572210e-01 9.08821225e-01 9.10070240e-01 9.11319256e-01 9.12568331e-01 9.13817346e-01 9.15066361e-01 9.16315377e-01 9.17564392e-01 9.18813407e-01 9.20062423e-01 9.21311498e-01 9.22560513e-01 9.23809528e-01 9.25058544e-01 9.26307559e-01 9.27556574e-01 9.28805649e-01 9.30054665e-01 9.31303680e-01 9.32552695e-01 9.33801711e-01 9.35050726e-01 9.36299741e-01 9.37548816e-01 9.38797832e-01 9.40046847e-01 9.41295862e-01 9.42544878e-01 9.43793893e-01 9.45042908e-01 9.46291983e-01 9.47540998e-01 9.48790014e-01 9.50039029e-01 9.51288044e-01 9.52537060e-01 9.53786075e-01 9.55035150e-01 9.56284165e-01 9.57533181e-01 9.58782196e-01 9.60031211e-01 9.61280227e-01 9.62529302e-01 9.63778317e-01 9.65027332e-01 9.66276348e-01 9.67525363e-01 9.68774378e-01 9.70023394e-01 9.71272469e-01 9.72521484e-01 9.73770499e-01 9.75019515e-01 9.76268530e-01 9.77517545e-01 9.78766561e-01 9.80015635e-01 9.81264651e-01 9.82513666e-01 9.83762681e-01 9.85011697e-01 9.86260712e-01 9.87509787e-01 9.88758802e-01 9.90007818e-01 9.91256833e-01 9.92505848e-01 9.93754864e-01 9.95003879e-01 9.96252954e-01 9.97501969e-01 9.98750985e-01 1.00000000e+00 
            </Histogram>
            <HistogramBinning NBins="801">
              -1.11375666e+00 -1.11365664e+00 -9.45795357e-01 -8.83214712e-01 -8.39906812e-01 -7.97036707e-01 -7.76377916e-01 -7.49756992e-01 -7.33753920e-01 -7.25411415e-01 -7.11074710e-01 -6.96789026e-01 -6.84149146e-01 -6.74604893e-01 -6.60953343e-01 -6.51862741e-01 -6.46137595e-01 -6.39763236e-01 -6.31212234e-01 -6.23591065e-01 -6.14791751e-01 -6.11584604e-01 -6.05702758e-01 -5.99389553e-01 -5.92270017e-01 -5.83918989e-01 -5.79427898e-01 -5.74995399e-01 -5.70730567e-01 -5.66147327e-01 -5.60029566e-01 -5.56941688e-01 -5.52578747e-01 -5.49306750e-01 -5.45115709e-01 -5.41582644e-01 -5.37085891e-01 -5.30153394e-01 -5.26947200e-01 -5.23687899e-01 -5.20900369e-01 -5.18455207e-01 -5.15449166e-01 -5.12790143e-01 -5.10551333e-01 -5.08745551e-01 -5.05240440e-01 -5.02784073e-01 -5.00751078e-01 -4.97655630e-01 -4.95512724e-01 -4.91699755e-01 -4.89070863e-01 -4.84147161e-01 -4.79832590e-01 -4.77227986e-01 -4.74615246e-01 -4.70700264e-01 -4.67395604e-01 -4.63978380e-01 -4.61582452e-01 -4.59607214e-01 -4.58495975e-01 -4.55494583e-01 -4.52817559e-01 -4.50612843e-01 -4.48129684e-01 -4.45506394e-01 -4.42967921e-01 -4.41836864e-01 -4.40551043e-01 -4.37024206e-01 -4.34286714e-01 -4.31725979e-01 -4.29480165e-01 -4.27752048e-01 -4.25670594e-01 -4.23416585e-01 -4.20689344e-01 -4.17351454e-01 -4.16252196e-01 -4.14057553e-01 -4.12209123e-01 -4.10147756e-01 -4.07178849e-01 -4.05750155e-01 -4.03362423e-01 -4.00904804e-01 -3.98142695e-01 -3.95048559e-01 -3.93836737e-01 -3.91836405e-01 -3.89076769e-01 -3.87536556e-01 -3.85094404e-01 -3.83415163e-01 -3.81235480e-01 -3.79093379e-01 -3.76734167e-01 -3.74596834e-01 -3.71730208e-01 -3.70087892e-01 -3.68104756e-01 -3.67130548e-01 -3.65227550e-01 -3.63413900e-01 -3.61028492e-01 -3.59594017e-01 -3.57932478e-01 -3.55969548e-01 -3.54662865e-01 -3.53716612e-01 -3.52070928e-01 -3.50182354e-01 -3.48390728e-01 -3.47464085e-01 -3.45713198e-01 -3.44148725e-01 -3.42584729e-01 -3.40758383e-01 -3.39141130e-01 -3.37048650e-01 -3.35034460e-01 -3.33744347e-01 -3.32303256e-01 -3.31346244e-01 -3.29070896e-01 -3.28222036e-01 -3.27351481e-01 -3.26069623e-01 -3.24438572e-01 -3.23161334e-01 -3.21818322e-01 -3.20852041e-01 -3.19878966e-01 -3.18954945e-01 -3.18141967e-01 -3.15981776e-01 -3.14864993e-01 -3.13395649e-01 -3.11574161e-01 -3.10615718e-01 -3.08521986e-01 -3.07271987e-01 -3.06318462e-01 -3.04524839e-01 -3.03376377e-01 -3.02238375e-01 -3.01557392e-01 -3.00296724e-01 -2.98495770e-01 -2.96602160e-01 -2.95397669e-01 -2.93791682e-01 -2.92886972e-01 -2.91459739e-01 -2.90009707e-01 -2.88112551e-01 -2.87035674e-01 -2.85849959e-01 -2.85137743e-01 -2.83766717e-01 -2.82184094e-01 -2.81135529e-01 -2.80092806e-01 -2.79357702e-01 -2.78612792e-01 -2.77328968e-01 -2.76089102e-01 -2.74302393e-01 -2.73206860e-01 -2.72064716e-01 -2.70911902e-01 -2.69785881e-01 -2.68974245e-01 -2.67550617e-01 -2.66557813e-01 -2.65306652e-01 -2.64086753e-01 -2.63011307e-01 -2.61318743e-01 -2.59335548e-01 -2.57975966e-01 -2.56572962e-01 -2.54394770e-01 -2.53162682e-01 -2.51759261e-01 -2.50719696e-01 -2.49447033e-01 -2.47828871e-01 -2.46589124e-01 -2.44934738e-01 -2.42961496e-01 -2.40851238e-01 -2.39830226e-01 -2.38259912e-01 -2.36891508e-01 -2.35326797e-01 -2.34392256e-01 -2.33742729e-01 -2.32638523e-01 -2.31253475e-01 -2.30173737e-01 -2.28455663e-01 -2.27261513e-01 -2.26082444e-01 -2.24591181e-01 -2.23149404e-01 -2.21995786e-01 -2.20244169e-01 -2.19177976e-01 -2.18577698e-01 -2.17134461e-01 -2.16116339e-01 -2.15085298e-01 -2.13760868e-01 -2.12926492e-01 -2.12450042e-01 -2.11581796e-01 -2.10457861e-01 -2.09491953e-01 -2.08233953e-01 -2.07721606e-01 -2.06029654e-01 -2.04195976e-01 -2.03099474e-01 -2.02188104e-01 -2.00631022e-01 -1.98716983e-01 -1.97983339e-01 -1.96431071e-01 -1.94779351e-01 -1.93053976e-01 -1.91657767e-01 -1.90587074e-01 -1.88975617e-01 -1.87310025e-01 -1.85916543e-01 -1.84374899e-01 -1.82988271e-01 -1.82197541e-01 -1.81400687e-01 -1.80788174e-01 -1.79473579e-01 -1.77466035e-01 -1.76833838e-01 -1.75794557e-01 -1.74972743e-01 -1.72943726e-01 -1.71711728e-01 -1.71072528e-01 -1.70380086e-01 -1.69661328e-01 -1.67999983e-01 -1.66641772e-01 -1.65774837e-01 -1.65332749e-01 -1.64307147e-01 -1.62976474e-01 -1.61982879e-01 -1.60740748e-01 -1.59112841e-01 -1.57896638e-01 -1.56899020e-01 -1.55255660e-01 -1.54467359e-01 -1.53341979e-01 -1.52285680e-01 -1.51044056e-01 -1.49645090e-01 -1.48862943e-01 -1.48215994e-01 -1.47221044e-01 -1.46386087e-01 -1.45800784e-01 -1.44353956e-01 -1.42979190e-01 -1.42271414e-01 -1.41267255e-01 -1.38796866e-01 -1.37715995e-01 -1.36672214e-01 -1.35868102e-01 -1.34940505e-01 -1.33527771e-01 -1.32407248e-01 -1.31567866e-01 -1.30824804e-01 -1.29755586e-01 -1.28441676e-01 -1.27310276e-01 -1.26645401e-01 -1.25852406e-01 -1.24997720e-01 -1.22859336e-01 -1.21739209e-01 -1.20869674e-01 -1.19515739e-01 -1.19011275e-01 -1.17472425e-01 -1.16584077e-01 -1.14899687e-01 -1.14110321e-01 -1.13117337e-01 -1.11126244e-01 -1.09850600e-01 -1.08708397e-01 -1.07851841e-01 -1.07183456e-01 -1.06279649e-01 -1.04920290e-01 -1.03847258e-01 -1.02914430e-01 -1.01325378e-01 -9.96757597e-02 -9.81051996e-02 -9.70951542e-02 -9.61505026e-02 -9.45673734e-02 -9.37531590e-02 -9.25320983e-02 -9.18002799e-02 -9.07267779e-02 -8.96094516e-02 -8.79491568e-02 -8.68289620e-02 -8.59173909e-02 -8.50198790e-02 -8.38152617e-02 -8.16679746e-02 -8.05116743e-02 -7.92521983e-02 -7.81222135e-02 -7.73292929e-02 -7.63824284e-02 -7.57433996e-02 -7.50689730e-02 -7.40538687e-02 -7.22276270e-02 -7.06264973e-02 -6.96408600e-02 -6.87393248e-02 -6.76965863e-02 -6.66578263e-02 -6.55574426e-02 -6.43592626e-02 -6.28758147e-02 -6.19343519e-02 -6.05463795e-02 -5.90209216e-02 -5.83688542e-02 -5.66250533e-02 -5.57760186e-02 -5.44236191e-02 -5.32592833e-02 -5.21278270e-02 -5.07854596e-02 -4.90520857e-02 -4.84586582e-02 -4.71486859e-02 -4.65928800e-02 -4.53667492e-02 -4.46937867e-02 -4.30891141e-02 -4.23683263e-02 -4.14156839e-02 -4.09653261e-02 -3.92146744e-02 -3.83009724e-02 -3.71511169e-02 -3.61334048e-02 -3.50160562e-02 -3.37150767e-02 -3.25259566e-02 -3.15884054e-02 -3.06272022e-02 -2.84659527e-02 -2.77174134e-02 -2.70444266e-02 -2.60237791e-02 -2.43071951e-02 -2.30068937e-02 -2.21804772e-02 -2.15350073e-02 -2.04838831e-02 -1.96337122e-02 -1.87747274e-02 -1.74257122e-02 -1.62946377e-02 -1.51574472e-02 -1.32859480e-02 -1.17304167e-02 -1.07794423e-02 -9.67767835e-03 -8.53706524e-03 -7.02666957e-03 -5.94492815e-03 -5.09376870e-03 -3.81480553e-03 -3.00337747e-03 -1.85785757e-03 -9.22308478e-04 2.30181642e-04 1.84668181e-03 2.75595160e-03 4.05018078e-03 4.90421383e-03 6.35487027e-03 7.43294321e-03 9.17491969e-03 9.97166056e-03 1.13504333e-02 1.19360443e-02 1.24630891e-02 1.39394822e-02 1.53877968e-02 1.65373962e-02 1.76698640e-02 1.89685319e-02 2.01126430e-02 2.11440381e-02 2.24770773e-02 2.39491723e-02 2.50866804e-02 2.61903666e-02 2.68886648e-02 2.77385842e-02 2.82717757e-02 2.94571854e-02 3.11936866e-02 3.20613720e-02 3.32478397e-02 3.43753099e-02 3.53887640e-02 3.67384367e-02 3.74270789e-02 3.80760469e-02 3.96560952e-02 4.12058309e-02 4.17851023e-02 4.24511656e-02 4.43993546e-02 4.52150777e-02 4.79714796e-02 4.96622771e-02 5.06173931e-02 5.13802208e-02 5.25195897e-02 5.36978915e-02 5.45939058e-02 5.56841046e-02 5.64658344e-02 5.74014187e-02 5.84761351e-02 5.95340692e-02 6.04851283e-02 6.11710362e-02 6.25938177e-02 6.32926822e-02 6.47412911e-02 6.58006668e-02 6.70118108e-02 6.82410151e-02 6.88368455e-02 6.99005499e-02 7.03973100e-02 7.17254654e-02 7.25837797e-02 7.35406801e-02 7.50498921e-02 7.57549629e-02 7.64768571e-02 7.73173794e-02 7.82767758e-02 7.89819732e-02 7.96562657e-02 8.06067064e-02 8.17101672e-02 8.25582743e-02 8.40706229e-02 8.48875865e-02 8.65634084e-02 8.86516050e-02 8.97291079e-02 9.12218466e-02 9.25900862e-02 9.39492211e-02 9.49851349e-02 9.61985290e-02 9.75697860e-02 9.93083119e-02 9.98182297e-02 1.00788794e-01 1.01626776e-01 1.02672748e-01 1.04433037e-01 1.05171062e-01 1.06205501e-01 1.06840506e-01 1.07573308e-01 1.08478270e-01 1.09893680e-01 1.10444628e-01 1.11296073e-01 1.12533011e-01 1.14282422e-01 1.15145154e-01 1.16259277e-01 1.17119089e-01 1.18052728e-01 1.18837699e-01 1.19567685e-01 1.21208265e-01 1.22251280e-01 1.23735532e-01 1.24678060e-01 1.26053780e-01 1.26630589e-01 1.27476156e-01 1.28874794e-01 1.30100340e-01 1.31408155e-01 1.32211015e-01 1.33767843e-01 1.34857729e-01 1.35951623e-01 1.37039945e-01 1.38274282e-01 1.39319554e-01 1.41120374e-01 1.42179221e-01 1.43364385e-01 1.44253865e-01 1.45456627e-01 1.46055728e-01 1.47655874e-01 1.48563012e-01 1.49718240e-01 1.50497213e-01 1.51665211e-01 1.52672306e-01 1.54002160e-01 1.55571863e-01 1.56754822e-01 1.57486200e-01 1.58987522e-01 1.60591811e-01 1.61168411e-01 1.62195623e-01 1.62848979e-01 1.64179027e-01 1.65316060e-01 1.66225836e-01 1.67794183e-01 1.68938532e-01 1.70589834e-01 1.71644643e-01 1.72601283e-01 1.73634112e-01 1.74409613e-01 1.75242230e-01 1.76828697e-01 1.78485379e-01 1.79475099e-01 1.81301624e-01 1.82881132e-01 1.83787853e-01 1.85063332e-01 1.86307937e-01 1.87162548e-01 1.88667312e-01 1.90242022e-01 1.91736862e-01 1.92887530e-01 1.94151133e-01 1.95043758e-01 1.95979953e-01 1.97037995e-01 1.98698044e-01 1.99918255e-01 2.01263487e-01 2.02202857e-01 2.04055592e-01 2.05666393e-01 2.07245916e-01 2.08333194e-01 2.09210500e-01 2.10870922e-01 2.12358475e-01 2.13820875e-01 2.15188250e-01 2.16648489e-01 2.17630461e-01 2.18776673e-01 2.19744772e-01 2.20657125e-01 2.22157389e-01 2.23514214e-01 2.24675491e-01 2.26363435e-01 2.28088632e-01 2.29286358e-01 2.30932713e-01 2.32500404e-01 2.34012455e-01 2.35678345e-01 2.37401277e-01 2.38219947e-01 2.39565149e-01 2.41000548e-01 2.42370024e-01 2.44299933e-01 2.45398045e-01 2.46642917e-01 2.48167202e-01 2.49552473e-01 2.50629008e-01 2.51875162e-01 2.54006982e-01 2.55774260e-01 2.56798387e-01 2.58106232e-01 2.59352148e-01 2.60660827e-01 2.62081683e-01 2.63450265e-01 2.64756083e-01 2.66238183e-01 2.67640263e-01 2.68150002e-01 2.69349754e-01 2.70597279e-01 2.71671146e-01 2.72670180e-01 2.73958951e-01 2.74667978e-01 2.76122004e-01 2.78278708e-01 2.78911293e-01 2.80531615e-01 2.81488955e-01 2.82526791e-01 2.83874899e-01 2.84455717e-01 2.86655247e-01 2.87620723e-01 2.89846510e-01 2.90884972e-01 2.91571379e-01 2.93071479e-01 2.94510603e-01 2.95674264e-01 2.96938866e-01 2.97935486e-01 2.99465418e-01 3.02264541e-01 3.03452611e-01 3.04853231e-01 3.06370378e-01 3.07722211e-01 3.09226781e-01 3.10744673e-01 3.12368393e-01 3.13874274e-01 3.16128761e-01 3.18084657e-01 3.18361938e-01 3.19952548e-01 3.21306258e-01 3.22400749e-01 3.23004365e-01 3.24508250e-01 3.25829238e-01 3.27189863e-01 3.28214198e-01 3.29092503e-01 3.30200821e-01 3.32153678e-01 3.33353043e-01 3.35181624e-01 3.36770177e-01 3.38079780e-01 3.40160221e-01 3.42986315e-01 3.44190568e-01 3.46318245e-01 3.47140044e-01 3.48520249e-01 3.49667877e-01 3.51220191e-01 3.52910072e-01 3.54337245e-01 3.55281830e-01 3.56527805e-01 3.57346326e-01 3.58853787e-01 3.61127824e-01 3.62356275e-01 3.64312798e-01 3.65794629e-01 3.68304491e-01 3.71203512e-01 3.72973979e-01 3.74226809e-01 3.74823630e-01 3.77627075e-01 3.79543543e-01 3.81184518e-01 3.84486407e-01 3.86179388e-01 3.87781918e-01 3.89075547e-01 3.92157018e-01 3.94874722e-01 3.96611571e-01 3.97758484e-01 3.99682164e-01 4.01827276e-01 4.04638559e-01 4.05484408e-01 4.08003986e-01 4.09865230e-01 4.11215365e-01 4.13152844e-01 4.17363137e-01 4.19215232e-01 4.22037959e-01 4.23911273e-01 4.25530344e-01 4.27380770e-01 4.29578215e-01 4.31877881e-01 4.34856325e-01 4.37286586e-01 4.39624310e-01 4.40524250e-01 4.42875147e-01 4.45161432e-01 4.47806418e-01 4.50256675e-01 4.52610254e-01 4.55066055e-01 4.56516355e-01 4.58734035e-01 4.61777031e-01 4.63293403e-01 4.64344978e-01 4.67433214e-01 4.71017182e-01 4.75319326e-01 4.78275537e-01 4.80845034e-01 4.83088166e-01 4.86735344e-01 4.91178215e-01 4.93716568e-01 4.98054296e-01 5.00092208e-01 5.03099620e-01 5.08062363e-01 5.12323141e-01 5.15264153e-01 5.18209815e-01 5.21009028e-01 5.23256958e-01 5.26751041e-01 5.28788090e-01 5.32718658e-01 5.36423802e-01 5.40219188e-01 5.44338346e-01 5.49899220e-01 5.55381119e-01 5.61181426e-01 5.66449761e-01 5.70422351e-01 5.78185320e-01 5.86403191e-01 5.93620777e-01 5.97451031e-01 6.02298915e-01 6.05282426e-01 6.14289582e-01 6.18370950e-01 6.26374304e-01 6.31047726e-01 6.37566209e-01 6.47070110e-01 6.51654482e-01 6.61673725e-01 6.81274116e-01 6.87481582e-01 7.02386141e-01 7.18451023e-01 7.41516232e-01 7.60094941e-01 7.77900219e-01 8.02311242e-01 8.21590483e-01 8.50757957e-01 8.97014439e-01 1.06535053e+00 
            </HistogramBinning>
          </PDF>
        </CumulativePDF_cls0>
        <CumulativePDF_cls1>
          <PDF Name="GaussTransform var0 cls1" MinNSmooth="0" MaxNSmooth="0" InterpolMethod="1" KDE_type="0" KDE_iter="1" KDE_border="1" KDE_finefactor="0.0000000000000000e+00">
            <Histogram Name="Cumulative_Var0_cls1_original" NBins="801" XMin="4.6143203973770142e-01" XMax="7.7229442596435547e+00" HasEquidistantBins="0">
              9.05542518e-04 2.02966435e-03 3.27088218e-03 4.52771271e-03 5.77673689e-03 7.02576106e-03 8.27478524e-03 9.52380989e-03 1.07728336e-02 1.20218582e-02 1.32708820e-02 1.45199066e-02 1.57689303e-02 1.70179550e-02 1.82669796e-02 1.95160024e-02 2.07650270e-02 2.20140517e-02 2.32630763e-02 2.45120991e-02 2.57611237e-02 2.70101484e-02 2.82591730e-02 2.95081958e-02 3.07572205e-02 3.20062451e-02 3.32552679e-02 3.45042944e-02 3.57533172e-02 3.70023437e-02 3.82513665e-02 3.95003892e-02 4.07494158e-02 4.19984385e-02 4.32474613e-02 4.44964878e-02 4.57455106e-02 4.69945371e-02 4.82435599e-02 4.94925827e-02 5.07416092e-02 5.19906320e-02 5.32396547e-02 5.44886813e-02 5.57377040e-02 5.69867305e-02 5.82357533e-02 5.94847761e-02 6.07338026e-02 6.19828254e-02 6.32318482e-02 6.44808710e-02 6.57299012e-02 6.69789240e-02 6.82279468e-02 6.94769695e-02 7.07259923e-02 7.19750226e-02 7.32240453e-02 7.44730681e-02 7.57220909e-02 7.69711137e-02 7.82201439e-02 7.94691667e-02 8.07181895e-02 8.19672123e-02 8.32162350e-02 8.44652578e-02 8.57142881e-02 8.69633108e-02 8.82123336e-02 8.94613564e-02 9.07103792e-02 9.19594094e-02 9.32084322e-02 9.44574550e-02 9.57064778e-02 9.69555005e-02 9.82045308e-02 9.94535536e-02 1.00702576e-01 1.01951599e-01 1.03200622e-01 1.04449652e-01 1.05698675e-01 1.06947698e-01 1.08196720e-01 1.09445743e-01 1.10694766e-01 1.11943796e-01 1.13192819e-01 1.14441842e-01 1.15690865e-01 1.16939887e-01 1.18188918e-01 1.19437940e-01 1.20686963e-01 1.21935986e-01 1.23185009e-01 1.24434039e-01 1.25683054e-01 1.26932085e-01 1.28181115e-01 1.29430130e-01 1.30679160e-01 1.31928176e-01 1.33177206e-01 1.34426236e-01 1.35675251e-01 1.36924282e-01 1.38173297e-01 1.39422327e-01 1.40671358e-01 1.41920373e-01 1.43169403e-01 1.44418418e-01 1.45667449e-01 1.46916479e-01 1.48165494e-01 1.49414524e-01 1.50663540e-01 1.51912570e-01 1.53161585e-01 1.54410616e-01 1.55659646e-01 1.56908661e-01 1.58157691e-01 1.59406707e-01 1.60655737e-01 1.61904767e-01 1.63153782e-01 1.64402813e-01 1.65651828e-01 1.66900858e-01 1.68149889e-01 1.69398904e-01 1.70647934e-01 1.71896949e-01 1.73145980e-01 1.74395010e-01 1.75644025e-01 1.76893055e-01 1.78142071e-01 1.79391101e-01 1.80640131e-01 1.81889147e-01 1.83138177e-01 1.84387192e-01 1.85636222e-01 1.86885253e-01 1.88134268e-01 1.89383298e-01 1.90632313e-01 1.91881344e-01 1.93130374e-01 1.94379389e-01 1.95628420e-01 1.96877435e-01 1.98126465e-01 1.99375495e-01 2.00624511e-01 2.01873541e-01 2.03122556e-01 2.04371586e-01 2.05620602e-01 2.06869632e-01 2.08118662e-01 2.09367678e-01 2.10616708e-01 2.11865723e-01 2.13114753e-01 2.14363784e-01 2.15612799e-01 2.16861829e-01 2.18110844e-01 2.19359875e-01 2.20608905e-01 2.21857920e-01 2.23106951e-01 2.24355966e-01 2.25604996e-01 2.26854026e-01 2.28103042e-01 2.29352072e-01 2.30601087e-01 2.31850117e-01 2.33099148e-01 2.34348163e-01 2.35597193e-01 2.36846209e-01 2.38095239e-01 2.39344269e-01 2.40593284e-01 2.41842315e-01 2.43091330e-01 2.44340360e-01 2.45589390e-01 2.46838406e-01 2.48087436e-01 2.49336451e-01 2.50585467e-01 2.51834512e-01 2.53083527e-01 2.54332542e-01 2.55581588e-01 2.56830603e-01 2.58079618e-01 2.59328663e-01 2.60577679e-01 2.61826694e-01 2.63075709e-01 2.64324754e-01 2.65573770e-01 2.66822785e-01 2.68071830e-01 2.69320846e-01 2.70569861e-01 2.71818906e-01 2.73067921e-01 2.74316937e-01 2.75565952e-01 2.76814997e-01 2.78064013e-01 2.79313028e-01 2.80562073e-01 2.81811088e-01 2.83060104e-01 2.84309119e-01 2.85558164e-01 2.86807179e-01 2.88056195e-01 2.89305240e-01 2.90554255e-01 2.91803271e-01 2.93052316e-01 2.94301331e-01 2.95550346e-01 2.96799362e-01 2.98048407e-01 2.99297422e-01 3.00546438e-01 3.01795483e-01 3.03044498e-01 3.04293513e-01 3.05542558e-01 3.06791574e-01 3.08040589e-01 3.09289604e-01 3.10538650e-01 3.11787665e-01 3.13036680e-01 3.14285725e-01 3.15534741e-01 3.16783756e-01 3.18032801e-01 3.19281816e-01 3.20530832e-01 3.21779847e-01 3.23028892e-01 3.24277908e-01 3.25526923e-01 3.26775968e-01 3.28024983e-01 3.29273999e-01 3.30523014e-01 3.31772059e-01 3.33021075e-01 3.34270090e-01 3.35519135e-01 3.36768150e-01 3.38017166e-01 3.39266211e-01 3.40515226e-01 3.41764241e-01 3.43013257e-01 3.44262302e-01 3.45511317e-01 3.46760333e-01 3.48009378e-01 3.49258393e-01 3.50507408e-01 3.51756454e-01 3.53005469e-01 3.54254484e-01 3.55503500e-01 3.56752545e-01 3.58001560e-01 3.59250575e-01 3.60499620e-01 3.61748636e-01 3.62997651e-01 3.64246696e-01 3.65495712e-01 3.66744727e-01 3.67993742e-01 3.69242787e-01 3.70491803e-01 3.71740818e-01 3.72989863e-01 3.74238878e-01 3.75487894e-01 3.76736939e-01 3.77985954e-01 3.79234970e-01 3.80483985e-01 3.81733030e-01 3.82982045e-01 3.84231061e-01 3.85480106e-01 3.86729121e-01 3.87978137e-01 3.89227152e-01 3.90476197e-01 3.91725212e-01 3.92974228e-01 3.94223273e-01 3.95472288e-01 3.96721303e-01 3.97970349e-01 3.99219364e-01 4.00468379e-01 4.01717395e-01 4.02966440e-01 4.04215455e-01 4.05464470e-01 4.06713516e-01 4.07962531e-01 4.09211546e-01 4.10460591e-01 4.11709607e-01 4.12958622e-01 4.14207637e-01 4.15456682e-01 4.16705698e-01 4.17954713e-01 4.19203758e-01 4.20452774e-01 4.21701789e-01 4.22950834e-01 4.24199849e-01 4.25448865e-01 4.26697880e-01 4.27946925e-01 4.29195940e-01 4.30444956e-01 4.31694001e-01 4.32943016e-01 4.34192032e-01 4.35441047e-01 4.36690092e-01 4.37939107e-01 4.39188123e-01 4.40437168e-01 4.41686183e-01 4.42935199e-01 4.44184244e-01 4.45433259e-01 4.46682274e-01 4.47931290e-01 4.49180335e-01 4.50429350e-01 4.51678365e-01 4.52927411e-01 4.54176426e-01 4.55425441e-01 4.56674486e-01 4.57923502e-01 4.59172517e-01 4.60421532e-01 4.61670578e-01 4.62919593e-01 4.64168608e-01 4.65417653e-01 4.66666669e-01 4.67915684e-01 4.69164729e-01 4.70413744e-01 4.71662760e-01 4.72911775e-01 4.74160820e-01 4.75409836e-01 4.76658851e-01 4.77907896e-01 4.79156911e-01 4.80405927e-01 4.81654972e-01 4.82903987e-01 4.84153003e-01 4.85402018e-01 4.86651063e-01 4.87900078e-01 4.89149094e-01 4.90398139e-01 4.91647154e-01 4.92896169e-01 4.94145185e-01 4.95394230e-01 4.96643245e-01 4.97892261e-01 4.99141306e-01 5.00390291e-01 5.01639366e-01 5.02888381e-01 5.04137397e-01 5.05386412e-01 5.06635427e-01 5.07884443e-01 5.09133518e-01 5.10382533e-01 5.11631548e-01 5.12880564e-01 5.14129579e-01 5.15378594e-01 5.16627610e-01 5.17876685e-01 5.19125700e-01 5.20374715e-01 5.21623731e-01 5.22872746e-01 5.24121761e-01 5.25370777e-01 5.26619852e-01 5.27868867e-01 5.29117882e-01 5.30366898e-01 5.31615913e-01 5.32864928e-01 5.34114003e-01 5.35363019e-01 5.36612034e-01 5.37861049e-01 5.39110065e-01 5.40359080e-01 5.41608095e-01 5.42857170e-01 5.44106185e-01 5.45355201e-01 5.46604216e-01 5.47853231e-01 5.49102247e-01 5.50351262e-01 5.51600337e-01 5.52849352e-01 5.54098368e-01 5.55347383e-01 5.56596398e-01 5.57845414e-01 5.59094429e-01 5.60343504e-01 5.61592519e-01 5.62841535e-01 5.64090550e-01 5.65339565e-01 5.66588581e-01 5.67837656e-01 5.69086671e-01 5.70335686e-01 5.71584702e-01 5.72833717e-01 5.74082732e-01 5.75331748e-01 5.76580822e-01 5.77829838e-01 5.79078853e-01 5.80327868e-01 5.81576884e-01 5.82825899e-01 5.84074914e-01 5.85323989e-01 5.86573005e-01 5.87822020e-01 5.89071035e-01 5.90320051e-01 5.91569066e-01 5.92818081e-01 5.94067156e-01 5.95316172e-01 5.96565187e-01 5.97814202e-01 5.99063218e-01 6.00312233e-01 6.01561308e-01 6.02810323e-01 6.04059339e-01 6.05308354e-01 6.06557369e-01 6.07806385e-01 6.09055400e-01 6.10304475e-01 6.11553490e-01 6.12802505e-01 6.14051521e-01 6.15300536e-01 6.16549551e-01 6.17798567e-01 6.19047642e-01 6.20296657e-01 6.21545672e-01 6.22794688e-01 6.24043703e-01 6.25292718e-01 6.26541793e-01 6.27790809e-01 6.29039824e-01 6.30288839e-01 6.31537855e-01 6.32786870e-01 6.34035885e-01 6.35284960e-01 6.36533976e-01 6.37782991e-01 6.39032006e-01 6.40281022e-01 6.41530037e-01 6.42779052e-01 6.44028127e-01 6.45277143e-01 6.46526158e-01 6.47775173e-01 6.49024189e-01 6.50273204e-01 6.51522219e-01 6.52771294e-01 6.54020309e-01 6.55269325e-01 6.56518340e-01 6.57767355e-01 6.59016371e-01 6.60265446e-01 6.61514461e-01 6.62763476e-01 6.64012492e-01 6.65261507e-01 6.66510522e-01 6.67759538e-01 6.69008613e-01 6.70257628e-01 6.71506643e-01 6.72755659e-01 6.74004674e-01 6.75253689e-01 6.76502705e-01 6.77751780e-01 6.79000795e-01 6.80249810e-01 6.81498826e-01 6.82747841e-01 6.83996856e-01 6.85245931e-01 6.86494946e-01 6.87743962e-01 6.88992977e-01 6.90241992e-01 6.91491008e-01 6.92740023e-01 6.93989098e-01 6.95238113e-01 6.96487129e-01 6.97736144e-01 6.98985159e-01 7.00234175e-01 7.01483190e-01 7.02732265e-01 7.03981280e-01 7.05230296e-01 7.06479311e-01 7.07728326e-01 7.08977342e-01 7.10226357e-01 7.11475432e-01 7.12724447e-01 7.13973463e-01 7.15222478e-01 7.16471493e-01 7.17720509e-01 7.18969584e-01 7.20218599e-01 7.21467614e-01 7.22716630e-01 7.23965645e-01 7.25214660e-01 7.26463675e-01 7.27712750e-01 7.28961766e-01 7.30210781e-01 7.31459796e-01 7.32708812e-01 7.33957827e-01 7.35206842e-01 7.36455917e-01 7.37704933e-01 7.38953948e-01 7.40202963e-01 7.41451979e-01 7.42700994e-01 7.43950009e-01 7.45199084e-01 7.46448100e-01 7.47697115e-01 7.48946130e-01 7.50195146e-01 7.51444161e-01 7.52693236e-01 7.53942251e-01 7.55191267e-01 7.56440282e-01 7.57689297e-01 7.58938313e-01 7.60187328e-01 7.61436403e-01 7.62685418e-01 7.63934433e-01 7.65183449e-01 7.66432464e-01 7.67681479e-01 7.68930495e-01 7.70179570e-01 7.71428585e-01 7.72677600e-01 7.73926616e-01 7.75175631e-01 7.76424646e-01 7.77673721e-01 7.78922737e-01 7.80171752e-01 7.81420767e-01 7.82669783e-01 7.83918798e-01 7.85167813e-01 7.86416888e-01 7.87665904e-01 7.88914919e-01 7.90163934e-01 7.91412950e-01 7.92661965e-01 7.93910980e-01 7.95160055e-01 7.96409070e-01 7.97658086e-01 7.98907101e-01 8.00156116e-01 8.01405132e-01 8.02654147e-01 8.03903222e-01 8.05152237e-01 8.06401253e-01 8.07650268e-01 8.08899283e-01 8.10148299e-01 8.11397374e-01 8.12646389e-01 8.13895404e-01 8.15144420e-01 8.16393435e-01 8.17642450e-01 8.18891466e-01 8.20140541e-01 8.21389556e-01 8.22638571e-01 8.23887587e-01 8.25136602e-01 8.26385617e-01 8.27634633e-01 8.28883708e-01 8.30132723e-01 8.31381738e-01 8.32630754e-01 8.33879769e-01 8.35128784e-01 8.36377859e-01 8.37626874e-01 8.38875890e-01 8.40124905e-01 8.41373920e-01 8.42622936e-01 8.43871951e-01 8.45121026e-01 8.46370041e-01 8.47619057e-01 8.48868072e-01 8.50117087e-01 8.51366103e-01 8.52615118e-01 8.53864193e-01 8.55113208e-01 8.56362224e-01 8.57611239e-01 8.58860254e-01 8.60109270e-01 8.61358285e-01 8.62607360e-01 8.63856375e-01 8.65105391e-01 8.66354406e-01 8.67603421e-01 8.68852437e-01 8.70101511e-01 8.71350527e-01 8.72599542e-01 8.73848557e-01 8.75097573e-01 8.76346588e-01 8.77595603e-01 8.78844678e-01 8.80093694e-01 8.81342709e-01 8.82591724e-01 8.83840740e-01 8.85089755e-01 8.86338770e-01 8.87587845e-01 8.88836861e-01 8.90085876e-01 8.91334891e-01 8.92583907e-01 8.93832922e-01 8.95081997e-01 8.96331012e-01 8.97580028e-01 8.98829043e-01 9.00078058e-01 9.01327074e-01 9.02576089e-01 9.03825164e-01 9.05074179e-01 9.06323195e-01 9.07572210e-01 9.08821225e-01 9.10070240e-01 9.11319256e-01 9.12568331e-01 9.13817346e-01 9.15066361e-01 9.16315377e-01 9.17564392e-01 9.18813407e-01 9.20062423e-01 9.21311498e-01 9.22560513e-01 9.23809528e-01 9.25058544e-01 9.26307559e-01 9.27556574e-01 9.28805649e-01 9.30054665e-01 9.31303680e-01 9.32552695e-01 9.33801711e-01 9.35050726e-01 9.36299741e-01 9.37548816e-01 9.38797832e-01 9.40046847e-01 9.41295862e-01 9.42544878e-01 9.43793893e-01 9.45042908e-01 9.46291983e-01 9.47540998e-01 9.48790014e-01 9.50039029e-01 9.51288044e-01 9.52537060e-01 9.53786075e-01 9.55035150e-01 9.56284165e-01 9.57533181e-01 9.58782196e-01 9.60031211e-01 9.61280227e-01 9.62529302e-01 9.63778317e-01 9.65027332e-01 9.66276348e-01 9.67525363e-01 9.68774378e-01 9.70023394e-01 9.71272469e-01 9.72521484e-01 9.73770499e-01 9.75019515e-01 9.76268530e-01 9.77517545e-01 9.78766561e-01 9.80015635e-01 9.81264651e-01 9.82513666e-01 9.83762681e-01 9.85011697e-01 9.86260712e-01 9.87509787e-01 9.88758802e-01 9.90007818e-01 9.91256833e-01 9.92505848e-01 9.93754864e-01 9.95003879e-01 9.96252954e-01 9.97501969e-01 9.98750985e-01 1.00000000e+00 
            </Histogram>
            <HistogramBinning NBins="801">
              4.61432040e-01 4.61532027e-01 9.86128211e-01 1.11761487e+00 1.29590356e+00 1.37704623e+00 1.45021141e+00 1.53845167e+00 1.58617604e+00 1.61641836e+00 1.67163122e+00 1.72229874e+00 1.75071490e+00 1.78961778e+00 1.82016790e+00 1.86630368e+00 1.90566242e+00 1.94678807e+00 1.96839952e+00 1.99133539e+00 2.01994824e+00 2.05307794e+00 2.07298160e+00 2.09756827e+00 2.11387849e+00 2.13340354e+00 2.15209389e+00 2.16945386e+00 2.18153119e+00 2.19114900e+00 2.20218015e+00 2.21685195e+00 2.22569537e+00 2.23523307e+00 2.24761009e+00 2.26131797e+00 2.27648497e+00 2.28978658e+00 2.29527354e+00 2.31374097e+00 2.32128501e+00 2.34007740e+00 2.35851145e+00 2.37917638e+00 2.38893461e+00 2.39825821e+00 2.40644073e+00 2.41445851e+00 2.42288542e+00 2.43264270e+00 2.44280505e+00 2.45550942e+00 2.46528029e+00 2.48056889e+00 2.49423862e+00 2.50540018e+00 2.51249361e+00 2.51569486e+00 2.52652669e+00 2.53799343e+00 2.54785872e+00 2.56155396e+00 2.56814122e+00 2.57252121e+00 2.58035398e+00 2.58718896e+00 2.59247708e+00 2.60007167e+00 2.60815215e+00 2.62065601e+00 2.63393164e+00 2.64097071e+00 2.64830470e+00 2.65577912e+00 2.66227150e+00 2.67550588e+00 2.67867780e+00 2.68897891e+00 2.69429851e+00 2.70294285e+00 2.70795226e+00 2.71278429e+00 2.72657585e+00 2.73075747e+00 2.73492432e+00 2.74073219e+00 2.74527407e+00 2.74948525e+00 2.75485873e+00 2.76145291e+00 2.76528311e+00 2.76966977e+00 2.77517891e+00 2.78256035e+00 2.78672147e+00 2.79531527e+00 2.80172944e+00 2.80778861e+00 2.81185699e+00 2.81907248e+00 2.82433414e+00 2.83084297e+00 2.83666325e+00 2.84630036e+00 2.84945416e+00 2.85449815e+00 2.85891294e+00 2.86555982e+00 2.87187290e+00 2.88066673e+00 2.88564897e+00 2.89232397e+00 2.90072918e+00 2.90778875e+00 2.91462708e+00 2.92404199e+00 2.92976141e+00 2.93519568e+00 2.94126678e+00 2.94910479e+00 2.95217323e+00 2.95679617e+00 2.96247411e+00 2.96942592e+00 2.97562099e+00 2.98290563e+00 2.98982310e+00 2.99374962e+00 2.99895000e+00 3.00347972e+00 3.00692177e+00 3.01100159e+00 3.01396012e+00 3.01865125e+00 3.02229619e+00 3.02669263e+00 3.03140330e+00 3.03672814e+00 3.04144096e+00 3.04619718e+00 3.05209374e+00 3.05597854e+00 3.05951071e+00 3.06191087e+00 3.06706762e+00 3.07249475e+00 3.07606173e+00 3.07779360e+00 3.08393383e+00 3.08751369e+00 3.09320378e+00 3.09699035e+00 3.10233521e+00 3.10888791e+00 3.11395407e+00 3.11608267e+00 3.12219834e+00 3.12551880e+00 3.12903166e+00 3.13831568e+00 3.14216352e+00 3.14641833e+00 3.15432668e+00 3.16012287e+00 3.16417861e+00 3.16802239e+00 3.17266846e+00 3.17714977e+00 3.18174529e+00 3.18613124e+00 3.19120216e+00 3.19637871e+00 3.20161986e+00 3.20670319e+00 3.20928335e+00 3.21452141e+00 3.21729541e+00 3.22268224e+00 3.22790909e+00 3.22970128e+00 3.23414326e+00 3.23932004e+00 3.24288344e+00 3.24945736e+00 3.25570941e+00 3.25958872e+00 3.26386166e+00 3.26857901e+00 3.27399707e+00 3.27702379e+00 3.28045845e+00 3.28429985e+00 3.29077315e+00 3.29581118e+00 3.29973102e+00 3.30169201e+00 3.30456686e+00 3.30761504e+00 3.31204557e+00 3.31886578e+00 3.32199287e+00 3.32601118e+00 3.32810307e+00 3.33091545e+00 3.33384418e+00 3.33669019e+00 3.34070587e+00 3.34461164e+00 3.34795523e+00 3.35134864e+00 3.35337901e+00 3.35702085e+00 3.36090255e+00 3.36562586e+00 3.36929822e+00 3.37251425e+00 3.37788224e+00 3.38287544e+00 3.38850093e+00 3.39206457e+00 3.39586854e+00 3.39882660e+00 3.40188646e+00 3.40514135e+00 3.40933347e+00 3.41305065e+00 3.41857219e+00 3.42069411e+00 3.42488122e+00 3.42929578e+00 3.43441105e+00 3.43838787e+00 3.44295859e+00 3.44847131e+00 3.45259309e+00 3.45535040e+00 3.45885229e+00 3.46248364e+00 3.46503949e+00 3.46736264e+00 3.46982026e+00 3.47395539e+00 3.47914028e+00 3.48224235e+00 3.48441768e+00 3.48898935e+00 3.49223042e+00 3.49799347e+00 3.50290036e+00 3.50559950e+00 3.50812149e+00 3.51158643e+00 3.51508617e+00 3.51891160e+00 3.52153349e+00 3.52358079e+00 3.52676654e+00 3.53117728e+00 3.53455186e+00 3.53986597e+00 3.54137468e+00 3.54456306e+00 3.54706216e+00 3.54895115e+00 3.55234814e+00 3.55770636e+00 3.56176329e+00 3.56356668e+00 3.56665301e+00 3.56957173e+00 3.57252097e+00 3.57546854e+00 3.57977962e+00 3.58327937e+00 3.58752298e+00 3.59137583e+00 3.59441161e+00 3.59894252e+00 3.60329628e+00 3.60744834e+00 3.61191916e+00 3.61405468e+00 3.61719155e+00 3.62034774e+00 3.62585258e+00 3.62812090e+00 3.63046956e+00 3.63280725e+00 3.63854480e+00 3.64181328e+00 3.64641285e+00 3.64921808e+00 3.65564156e+00 3.65901780e+00 3.66193247e+00 3.66449761e+00 3.66772795e+00 3.67122173e+00 3.67511702e+00 3.68175435e+00 3.68390012e+00 3.68844223e+00 3.69106817e+00 3.69500613e+00 3.69894886e+00 3.70750642e+00 3.70905614e+00 3.71350074e+00 3.71826267e+00 3.72108984e+00 3.72385621e+00 3.72604799e+00 3.73017263e+00 3.73289061e+00 3.73591495e+00 3.73755407e+00 3.74200773e+00 3.74561453e+00 3.74831676e+00 3.75316668e+00 3.75618124e+00 3.76001143e+00 3.76456857e+00 3.76775837e+00 3.77033520e+00 3.77350307e+00 3.77659559e+00 3.78126645e+00 3.78541970e+00 3.78803039e+00 3.78998947e+00 3.79350305e+00 3.79530454e+00 3.79910231e+00 3.80398464e+00 3.80725980e+00 3.81088686e+00 3.81454706e+00 3.81810999e+00 3.82063603e+00 3.82204604e+00 3.82451677e+00 3.82915211e+00 3.83329940e+00 3.83614302e+00 3.83854175e+00 3.84096813e+00 3.84359694e+00 3.84649587e+00 3.84827280e+00 3.85280228e+00 3.85733604e+00 3.86079979e+00 3.86304760e+00 3.86533141e+00 3.86865759e+00 3.87260509e+00 3.87665176e+00 3.87953663e+00 3.88412619e+00 3.88626099e+00 3.89100957e+00 3.89484239e+00 3.89831924e+00 3.90268230e+00 3.90520215e+00 3.90713906e+00 3.90989995e+00 3.91185164e+00 3.91443920e+00 3.91780758e+00 3.92402411e+00 3.92681623e+00 3.93092227e+00 3.93393230e+00 3.93787622e+00 3.94146276e+00 3.94477224e+00 3.94888783e+00 3.95094633e+00 3.95309019e+00 3.95646834e+00 3.95871472e+00 3.96261501e+00 3.96516156e+00 3.96834898e+00 3.97006035e+00 3.97466063e+00 3.97756076e+00 3.97972894e+00 3.98254275e+00 3.98452973e+00 3.98751616e+00 3.98875117e+00 3.99206328e+00 3.99449468e+00 3.99700761e+00 4.00052929e+00 4.00309372e+00 4.00609589e+00 4.01167870e+00 4.01507521e+00 4.01854324e+00 4.02075481e+00 4.02393818e+00 4.02720165e+00 4.02967691e+00 4.03134203e+00 4.03455544e+00 4.03763485e+00 4.03878212e+00 4.04448032e+00 4.04720831e+00 4.04879332e+00 4.05251169e+00 4.05619574e+00 4.06011915e+00 4.06275988e+00 4.06562471e+00 4.06726551e+00 4.06955528e+00 4.07372427e+00 4.07636642e+00 4.07859945e+00 4.08147717e+00 4.08292198e+00 4.08483934e+00 4.08815908e+00 4.09033060e+00 4.09197092e+00 4.09587193e+00 4.09851360e+00 4.10136461e+00 4.10505342e+00 4.10720873e+00 4.10987043e+00 4.11229181e+00 4.11447382e+00 4.11665773e+00 4.11861849e+00 4.12258053e+00 4.12411499e+00 4.12717819e+00 4.12875175e+00 4.13203955e+00 4.13520527e+00 4.13753223e+00 4.13955832e+00 4.14214230e+00 4.14685583e+00 4.15060472e+00 4.15349627e+00 4.15641308e+00 4.16041708e+00 4.16471577e+00 4.16576529e+00 4.16918135e+00 4.17353678e+00 4.17597151e+00 4.17826509e+00 4.18073845e+00 4.18487883e+00 4.18695116e+00 4.19035625e+00 4.19454336e+00 4.19881725e+00 4.20136166e+00 4.20522547e+00 4.20788431e+00 4.21117306e+00 4.21532822e+00 4.21800375e+00 4.22084284e+00 4.22364950e+00 4.22709799e+00 4.23079157e+00 4.23242569e+00 4.23387623e+00 4.23694134e+00 4.24175978e+00 4.24519300e+00 4.24704409e+00 4.24921036e+00 4.25299025e+00 4.25668955e+00 4.25924969e+00 4.26287842e+00 4.26551867e+00 4.26893663e+00 4.27144480e+00 4.27676630e+00 4.27898884e+00 4.28074932e+00 4.28498936e+00 4.28809595e+00 4.29049015e+00 4.29533482e+00 4.29933786e+00 4.30311489e+00 4.30475378e+00 4.30825949e+00 4.31428719e+00 4.31862116e+00 4.32192421e+00 4.32486725e+00 4.32910061e+00 4.33202744e+00 4.33468246e+00 4.33893824e+00 4.34237146e+00 4.34766626e+00 4.35214615e+00 4.35409117e+00 4.35574436e+00 4.35996056e+00 4.36265802e+00 4.36708117e+00 4.37149620e+00 4.37539577e+00 4.37829494e+00 4.38231611e+00 4.38707256e+00 4.39053822e+00 4.39313507e+00 4.39716530e+00 4.40076780e+00 4.40465689e+00 4.40668201e+00 4.40956402e+00 4.41296196e+00 4.41721249e+00 4.42109776e+00 4.42510128e+00 4.42763853e+00 4.43049812e+00 4.43417883e+00 4.43679857e+00 4.44115829e+00 4.44704533e+00 4.44939804e+00 4.45292664e+00 4.45527887e+00 4.45928144e+00 4.46245193e+00 4.46748877e+00 4.47076607e+00 4.47418165e+00 4.47764778e+00 4.48211861e+00 4.48459721e+00 4.48600483e+00 4.49040174e+00 4.49403620e+00 4.49705172e+00 4.49993181e+00 4.50183344e+00 4.50513744e+00 4.50755405e+00 4.51046276e+00 4.51339579e+00 4.51746511e+00 4.52238941e+00 4.52520561e+00 4.52843809e+00 4.53471565e+00 4.53835344e+00 4.54287529e+00 4.54632950e+00 4.55031729e+00 4.55364323e+00 4.55700016e+00 4.55940199e+00 4.56399822e+00 4.56804228e+00 4.56937408e+00 4.57519674e+00 4.57842159e+00 4.58165312e+00 4.58394766e+00 4.58820772e+00 4.59357119e+00 4.59840012e+00 4.60087061e+00 4.60473824e+00 4.60743713e+00 4.61066341e+00 4.61425924e+00 4.61850071e+00 4.62265539e+00 4.62618732e+00 4.63164425e+00 4.63456917e+00 4.63749933e+00 4.63981295e+00 4.64329529e+00 4.64611244e+00 4.65229082e+00 4.65523958e+00 4.65956163e+00 4.66434145e+00 4.66854763e+00 4.67430305e+00 4.67661238e+00 4.68183088e+00 4.68679142e+00 4.68953371e+00 4.69568253e+00 4.69852638e+00 4.70559931e+00 4.70907784e+00 4.71596050e+00 4.71941471e+00 4.72339153e+00 4.72760105e+00 4.73082495e+00 4.73375368e+00 4.73775101e+00 4.74230957e+00 4.74456549e+00 4.74787474e+00 4.75166702e+00 4.75556564e+00 4.76048946e+00 4.76385403e+00 4.76783133e+00 4.77320242e+00 4.77655935e+00 4.77885199e+00 4.78243780e+00 4.78714991e+00 4.79070473e+00 4.79259300e+00 4.79639101e+00 4.80111694e+00 4.80450630e+00 4.80750275e+00 4.81363964e+00 4.81791830e+00 4.82073641e+00 4.82393074e+00 4.82829714e+00 4.83514595e+00 4.83836079e+00 4.84314108e+00 4.84740448e+00 4.85217428e+00 4.85511827e+00 4.85859585e+00 4.86250019e+00 4.86701488e+00 4.87167931e+00 4.87910080e+00 4.88705063e+00 4.89034176e+00 4.89459085e+00 4.90060997e+00 4.90459299e+00 4.90915108e+00 4.91294241e+00 4.91874790e+00 4.92329502e+00 4.92655230e+00 4.93034792e+00 4.93619633e+00 4.94043827e+00 4.94675255e+00 4.95236635e+00 4.95704603e+00 4.96405029e+00 4.96933317e+00 4.97388363e+00 4.97874546e+00 4.98286057e+00 4.98656464e+00 4.99379492e+00 5.00091600e+00 5.00957727e+00 5.01421499e+00 5.02005053e+00 5.02540970e+00 5.03344107e+00 5.03838730e+00 5.04370117e+00 5.05060768e+00 5.05342388e+00 5.06001234e+00 5.06533194e+00 5.07163286e+00 5.07903767e+00 5.08562613e+00 5.09115887e+00 5.09534788e+00 5.10036325e+00 5.10739136e+00 5.11181641e+00 5.11757278e+00 5.12227535e+00 5.13376760e+00 5.13725805e+00 5.14079142e+00 5.14661646e+00 5.15185118e+00 5.16118479e+00 5.16989470e+00 5.17421389e+00 5.18044472e+00 5.18622684e+00 5.19647121e+00 5.20203781e+00 5.21257401e+00 5.21748018e+00 5.22520161e+00 5.23093176e+00 5.23473120e+00 5.23978519e+00 5.25250721e+00 5.25948668e+00 5.26451159e+00 5.27795696e+00 5.28297615e+00 5.29422474e+00 5.30204535e+00 5.30975389e+00 5.31869841e+00 5.32498503e+00 5.33323002e+00 5.34047318e+00 5.35119057e+00 5.36353397e+00 5.37233305e+00 5.38389921e+00 5.39336300e+00 5.40000534e+00 5.40816784e+00 5.41447067e+00 5.42492771e+00 5.43132877e+00 5.43965006e+00 5.44623041e+00 5.45268488e+00 5.45979929e+00 5.46761656e+00 5.47630072e+00 5.48297596e+00 5.49273396e+00 5.50195885e+00 5.50986242e+00 5.51708364e+00 5.52880144e+00 5.53710556e+00 5.54789066e+00 5.55297518e+00 5.56001377e+00 5.56849289e+00 5.57470226e+00 5.58373499e+00 5.59033489e+00 5.59682703e+00 5.60859442e+00 5.61889076e+00 5.63845778e+00 5.64804983e+00 5.65547562e+00 5.67150688e+00 5.69190931e+00 5.70236254e+00 5.71673870e+00 5.72985792e+00 5.74030066e+00 5.75241184e+00 5.76202965e+00 5.78271723e+00 5.80457067e+00 5.81393528e+00 5.83616495e+00 5.85118294e+00 5.86367846e+00 5.87957048e+00 5.89446259e+00 5.91774797e+00 5.94438076e+00 5.95476532e+00 5.97492647e+00 5.98875618e+00 6.00949430e+00 6.03653717e+00 6.05572033e+00 6.08713341e+00 6.13359880e+00 6.15753174e+00 6.21461964e+00 6.26717329e+00 6.28605413e+00 6.31449890e+00 6.35884857e+00 6.40262985e+00 6.42494011e+00 6.48389673e+00 6.54033136e+00 6.67123938e+00 6.83513308e+00 7.72294426e+00 
            </HistogramBinning>
          </PDF>
        </CumulativePDF_cls1>
        <CumulativePDF_cls2>
          <PDF Name="GaussTransform var0 cls2" MinNSmooth="0" MaxNSmooth="0" InterpolMethod="1" KDE_type="0" KDE_iter="1" KDE_border="1" KDE_finefactor="0.0000000000000000e+00">
            <Histogram Name="Cumulative_Var0_cls2_original" NBins="1601" XMin="-1.1137566566467285e+00" XMax="7.7229442596435547e+00" HasEquidistantBins="0">
              4.52948065e-04 1.01522845e-03 1.63607963e-03 2.26474041e-03 2.88949627e-03 3.51425214e-03 4.13900800e-03 4.76376433e-03 5.38852019e-03 6.01327606e-03 6.63803192e-03 7.26278778e-03 7.88754411e-03 8.51229951e-03 9.13705584e-03 9.76181217e-03 1.03865676e-02 1.10113239e-02 1.16360793e-02 1.22608356e-02 1.28855919e-02 1.35103473e-02 1.41351037e-02 1.47598591e-02 1.53846154e-02 1.60093717e-02 1.66341271e-02 1.72588825e-02 1.78836398e-02 1.85083952e-02 1.91331506e-02 1.97579078e-02 2.03826632e-02 2.10074186e-02 2.16321740e-02 2.22569313e-02 2.28816867e-02 2.35064421e-02 2.41311993e-02 2.47559547e-02 2.53807101e-02 2.60054674e-02 2.66302228e-02 2.72549782e-02 2.78797336e-02 2.85044909e-02 2.91292462e-02 2.97540016e-02 3.03787589e-02 3.10035143e-02 3.16282697e-02 3.22530270e-02 3.28777805e-02 3.35025378e-02 3.41272950e-02 3.47520486e-02 3.53768058e-02 3.60015631e-02 3.66263166e-02 3.72510739e-02 3.78758311e-02 3.85005847e-02 3.91253419e-02 3.97500992e-02 4.03748527e-02 4.09996100e-02 4.16243672e-02 4.22491208e-02 4.28738780e-02 4.34986316e-02 4.41233888e-02 4.47481461e-02 4.53728996e-02 4.59976569e-02 4.66224141e-02 4.72471677e-02 4.78719249e-02 4.84966822e-02 4.91214357e-02 4.97461930e-02 5.03709503e-02 5.09957038e-02 5.16204610e-02 5.22452183e-02 5.28699718e-02 5.34947291e-02 5.41194864e-02 5.47442399e-02 5.53689972e-02 5.59937507e-02 5.66185080e-02 5.72432652e-02 5.78680187e-02 5.84927760e-02 5.91175333e-02 5.97422868e-02 6.03670441e-02 6.09918013e-02 6.16165549e-02 6.22413121e-02 6.28660694e-02 6.34908229e-02 6.41155764e-02 6.47403374e-02 6.53650910e-02 6.59898445e-02 6.66146055e-02 6.72393590e-02 6.78641126e-02 6.84888735e-02 6.91136271e-02 6.97383806e-02 7.03631416e-02 7.09878951e-02 7.16126487e-02 7.22374097e-02 7.28621632e-02 7.34869167e-02 7.41116777e-02 7.47364312e-02 7.53611848e-02 7.59859458e-02 7.66106993e-02 7.72354528e-02 7.78602138e-02 7.84849674e-02 7.91097209e-02 7.97344819e-02 8.03592354e-02 8.09839889e-02 8.16087499e-02 8.22335035e-02 8.28582570e-02 8.34830180e-02 8.41077715e-02 8.47325251e-02 8.53572860e-02 8.59820396e-02 8.66067931e-02 8.72315466e-02 8.78563076e-02 8.84810612e-02 8.91058147e-02 8.97305757e-02 9.03553292e-02 9.09800828e-02 9.16048437e-02 9.22295973e-02 9.28543508e-02 9.34791118e-02 9.41038653e-02 9.47286189e-02 9.53533798e-02 9.59781334e-02 9.66028869e-02 9.72276479e-02 9.78524014e-02 9.84771550e-02 9.91019160e-02 9.97266695e-02 1.00351423e-01 1.00976184e-01 1.01600938e-01 1.02225691e-01 1.02850452e-01 1.03475206e-01 1.04099959e-01 1.04724720e-01 1.05349474e-01 1.05974227e-01 1.06598988e-01 1.07223742e-01 1.07848495e-01 1.08473256e-01 1.09098010e-01 1.09722763e-01 1.10347517e-01 1.10972278e-01 1.11597031e-01 1.12221785e-01 1.12846546e-01 1.13471299e-01 1.14096053e-01 1.14720814e-01 1.15345567e-01 1.15970321e-01 1.16595082e-01 1.17219836e-01 1.17844589e-01 1.18469350e-01 1.19094104e-01 1.19718857e-01 1.20343618e-01 1.20968372e-01 1.21593125e-01 1.22217886e-01 1.22842640e-01 1.23467393e-01 1.24092154e-01 1.24716908e-01 1.25341669e-01 1.25966415e-01 1.26591176e-01 1.27215937e-01 1.27840683e-01 1.28465444e-01 1.29090205e-01 1.29714951e-01 1.30339712e-01 1.30964473e-01 1.31589219e-01 1.32213980e-01 1.32838741e-01 1.33463487e-01 1.34088248e-01 1.34713009e-01 1.35337755e-01 1.35962516e-01 1.36587277e-01 1.37212023e-01 1.37836784e-01 1.38461545e-01 1.39086291e-01 1.39711052e-01 1.40335813e-01 1.40960559e-01 1.41585320e-01 1.42210081e-01 1.42834827e-01 1.43459588e-01 1.44084349e-01 1.44709095e-01 1.45333856e-01 1.45958617e-01 1.46583363e-01 1.47208124e-01 1.47832870e-01 1.48457631e-01 1.49082392e-01 1.49707139e-01 1.50331900e-01 1.50956661e-01 1.51581407e-01 1.52206168e-01 1.52830929e-01 1.53455675e-01 1.54080436e-01 1.54705197e-01 1.55329943e-01 1.55954704e-01 1.56579465e-01 1.57204211e-01 1.57828972e-01 1.58453733e-01 1.59078479e-01 1.59703240e-01 1.60328001e-01 1.60952747e-01 1.61577508e-01 1.62202269e-01 1.62827015e-01 1.63451776e-01 1.64076537e-01 1.64701283e-01 1.65326044e-01 1.65950805e-01 1.66575551e-01 1.67200312e-01 1.67825073e-01 1.68449819e-01 1.69074580e-01 1.69699341e-01 1.70324087e-01 1.70948848e-01 1.71573609e-01 1.72198355e-01 1.72823116e-01 1.73447877e-01 1.74072623e-01 1.74697384e-01 1.75322145e-01 1.75946891e-01 1.76571652e-01 1.77196413e-01 1.77821159e-01 1.78445920e-01 1.79070681e-01 1.79695427e-01 1.80320188e-01 1.80944949e-01 1.81569695e-01 1.82194456e-01 1.82819217e-01 1.83443964e-01 1.84068725e-01 1.84693485e-01 1.85318232e-01 1.85942993e-01 1.86567754e-01 1.87192500e-01 1.87817261e-01 1.88442022e-01 1.89066768e-01 1.89691529e-01 1.90316290e-01 1.90941036e-01 1.91565797e-01 1.92190558e-01 1.92815304e-01 1.93440065e-01 1.94064826e-01 1.94689572e-01 1.95314333e-01 1.95939079e-01 1.96563840e-01 1.97188601e-01 1.97813347e-01 1.98438108e-01 1.99062869e-01 1.99687615e-01 2.00312376e-01 2.00937137e-01 2.01561883e-01 2.02186644e-01 2.02811405e-01 2.03436151e-01 2.04060912e-01 2.04685673e-01 2.05310419e-01 2.05935180e-01 2.06559941e-01 2.07184687e-01 2.07809448e-01 2.08434209e-01 2.09058955e-01 2.09683716e-01 2.10308477e-01 2.10933223e-01 2.11557984e-01 2.12182745e-01 2.12807491e-01 2.13432252e-01 2.14057013e-01 2.14681759e-01 2.15306520e-01 2.15931281e-01 2.16556028e-01 2.17180789e-01 2.17805550e-01 2.18430296e-01 2.19055057e-01 2.19679818e-01 2.20304564e-01 2.20929325e-01 2.21554086e-01 2.22178832e-01 2.22803593e-01 2.23428354e-01 2.24053100e-01 2.24677861e-01 2.25302622e-01 2.25927368e-01 2.26552129e-01 2.27176890e-01 2.27801636e-01 2.28426397e-01 2.29051158e-01 2.29675904e-01 2.30300665e-01 2.30925426e-01 2.31550172e-01 2.32174933e-01 2.32799694e-01 2.33424440e-01 2.34049201e-01 2.34673962e-01 2.35298708e-01 2.35923469e-01 2.36548230e-01 2.37172976e-01 2.37797737e-01 2.38422498e-01 2.39047244e-01 2.39672005e-01 2.40296766e-01 2.40921512e-01 2.41546273e-01 2.42171034e-01 2.42795780e-01 2.43420541e-01 2.44045287e-01 2.44670048e-01 2.45294809e-01 2.45919555e-01 2.46544316e-01 2.47169077e-01 2.47793823e-01 2.48418584e-01 2.49043345e-01 2.49668092e-01 2.50292867e-01 2.50917614e-01 2.51542360e-01 2.52167135e-01 2.52791882e-01 2.53416628e-01 2.54041404e-01 2.54666150e-01 2.55290896e-01 2.55915672e-01 2.56540418e-01 2.57165164e-01 2.57789940e-01 2.58414686e-01 2.59039432e-01 2.59664208e-01 2.60288954e-01 2.60913700e-01 2.61538476e-01 2.62163222e-01 2.62787968e-01 2.63412744e-01 2.64037490e-01 2.64662236e-01 2.65287012e-01 2.65911758e-01 2.66536504e-01 2.67161280e-01 2.67786026e-01 2.68410772e-01 2.69035518e-01 2.69660294e-01 2.70285040e-01 2.70909786e-01 2.71534562e-01 2.72159308e-01 2.72784054e-01 2.73408830e-01 2.74033576e-01 2.74658322e-01 2.75283098e-01 2.75907844e-01 2.76532590e-01 2.77157366e-01 2.77782112e-01 2.78406858e-01 2.79031634e-01 2.79656380e-01 2.80281126e-01 2.80905902e-01 2.81530648e-01 2.82155395e-01 2.82780170e-01 2.83404917e-01 2.84029663e-01 2.84654438e-01 2.85279185e-01 2.85903931e-01 2.86528707e-01 2.87153453e-01 2.87778199e-01 2.88402975e-01 2.89027721e-01 2.89652467e-01 2.90277243e-01 2.90901989e-01 2.91526735e-01 2.92151511e-01 2.92776257e-01 2.93401003e-01 2.94025779e-01 2.94650525e-01 2.95275271e-01 2.95900047e-01 2.96524793e-01 2.97149539e-01 2.97774315e-01 2.98399061e-01 2.99023807e-01 2.99648583e-01 3.00273329e-01 3.00898075e-01 3.01522851e-01 3.02147597e-01 3.02772343e-01 3.03397119e-01 3.04021865e-01 3.04646611e-01 3.05271387e-01 3.05896133e-01 3.06520879e-01 3.07145655e-01 3.07770401e-01 3.08395147e-01 3.09019923e-01 3.09644669e-01 3.10269415e-01 3.10894191e-01 3.11518937e-01 3.12143683e-01 3.12768459e-01 3.13393205e-01 3.14017951e-01 3.14642727e-01 3.15267473e-01 3.15892220e-01 3.16516995e-01 3.17141742e-01 3.17766488e-01 3.18391263e-01 3.19016010e-01 3.19640756e-01 3.20265532e-01 3.20890278e-01 3.21515024e-01 3.22139800e-01 3.22764546e-01 3.23389292e-01 3.24014068e-01 3.24638814e-01 3.25263560e-01 3.25888336e-01 3.26513082e-01 3.27137828e-01 3.27762604e-01 3.28387350e-01 3.29012096e-01 3.29636872e-01 3.30261618e-01 3.30886364e-01 3.31511140e-01 3.32135886e-01 3.32760632e-01 3.33385408e-01 3.34010154e-01 3.34634900e-01 3.35259676e-01 3.35884422e-01 3.36509168e-01 3.37133944e-01 3.37758690e-01 3.38383436e-01 3.39008212e-01 3.39632958e-01 3.40257704e-01 3.40882480e-01 3.41507226e-01 3.42131972e-01 3.42756748e-01 3.43381494e-01 3.44006240e-01 3.44631016e-01 3.45255762e-01 3.45880508e-01 3.46505284e-01 3.47130030e-01 3.47754776e-01 3.48379552e-01 3.49004298e-01 3.49629045e-01 3.50253820e-01 3.50878567e-01 3.51503313e-01 3.52128088e-01 3.52752835e-01 3.53377581e-01 3.54002357e-01 3.54627103e-01 3.55251849e-01 3.55876625e-01 3.56501371e-01 3.57126117e-01 3.57750893e-01 3.58375639e-01 3.59000385e-01 3.59625161e-01 3.60249907e-01 3.60874653e-01 3.61499429e-01 3.62124175e-01 3.62748921e-01 3.63373697e-01 3.63998443e-01 3.64623189e-01 3.65247965e-01 3.65872711e-01 3.66497457e-01 3.67122203e-01 3.67746979e-01 3.68371725e-01 3.68996471e-01 3.69621247e-01 3.70245993e-01 3.70870739e-01 3.71495515e-01 3.72120261e-01 3.72745007e-01 3.73369783e-01 3.73994529e-01 3.74619275e-01 3.75244051e-01 3.75868797e-01 3.76493543e-01 3.77118319e-01 3.77743065e-01 3.78367811e-01 3.78992587e-01 3.79617333e-01 3.80242079e-01 3.80866855e-01 3.81491601e-01 3.82116348e-01 3.82741123e-01 3.83365870e-01 3.83990616e-01 3.84615391e-01 3.85240138e-01 3.85864884e-01 3.86489660e-01 3.87114406e-01 3.87739152e-01 3.88363928e-01 3.88988674e-01 3.89613420e-01 3.90238196e-01 3.90862942e-01 3.91487688e-01 3.92112464e-01 3.92737210e-01 3.93361956e-01 3.93986732e-01 3.94611478e-01 3.95236224e-01 3.95861000e-01 3.96485746e-01 3.97110492e-01 3.97735268e-01 3.98360014e-01 3.98984760e-01 3.99609536e-01 4.00234282e-01 4.00859028e-01 4.01483804e-01 4.02108550e-01 4.02733296e-01 4.03358072e-01 4.03982818e-01 4.04607564e-01 4.05232340e-01 4.05857086e-01 4.06481832e-01 4.07106608e-01 4.07731354e-01 4.08356100e-01 4.08980876e-01 4.09605622e-01 4.10230368e-01 4.10855144e-01 4.11479890e-01 4.12104636e-01 4.12729412e-01 4.13354158e-01 4.13978904e-01 4.14603680e-01 4.15228426e-01 4.15853173e-01 4.16477948e-01 4.17102695e-01 4.17727441e-01 4.18352216e-01 4.18976963e-01 4.19601709e-01 4.20226485e-01 4.20851231e-01 4.21475977e-01 4.22100753e-01 4.22725499e-01 4.23350245e-01 4.23975021e-01 4.24599767e-01 4.25224513e-01 4.25849289e-01 4.26474035e-01 4.27098781e-01 4.27723557e-01 4.28348303e-01 4.28973049e-01 4.29597825e-01 4.30222571e-01 4.30847317e-01 4.31472093e-01 4.32096839e-01 4.32721585e-01 4.33346361e-01 4.33971107e-01 4.34595853e-01 4.35220629e-01 4.35845375e-01 4.36470121e-01 4.37094897e-01 4.37719643e-01 4.38344389e-01 4.38969165e-01 4.39593911e-01 4.40218657e-01 4.40843433e-01 4.41468179e-01 4.42092925e-01 4.42717701e-01 4.43342447e-01 4.43967193e-01 4.44591969e-01 4.45216715e-01 4.45841461e-01 4.46466237e-01 4.47090983e-01 4.47715729e-01 4.48340505e-01 4.48965251e-01 4.49589998e-01 4.50214773e-01 4.50839520e-01 4.51464266e-01 4.52089041e-01 4.52713788e-01 4.53338534e-01 4.53963310e-01 4.54588056e-01 4.55212802e-01 4.55837578e-01 4.56462324e-01 4.57087070e-01 4.57711846e-01 4.58336592e-01 4.58961338e-01 4.59586114e-01 4.60210860e-01 4.60835606e-01 4.61460382e-01 4.62085128e-01 4.62709874e-01 4.63334650e-01 4.63959396e-01 4.64584142e-01 4.65208888e-01 4.65833664e-01 4.66458410e-01 4.67083156e-01 4.67707932e-01 4.68332678e-01 4.68957424e-01 4.69582200e-01 4.70206946e-01 4.70831692e-01 4.71456468e-01 4.72081214e-01 4.72705960e-01 4.73330736e-01 4.73955482e-01 4.74580228e-01 4.75205004e-01 4.75829750e-01 4.76454496e-01 4.77079272e-01 4.77704018e-01 4.78328764e-01 4.78953540e-01 4.79578286e-01 4.80203032e-01 4.80827808e-01 4.81452554e-01 4.82077301e-01 4.82702076e-01 4.83326823e-01 4.83951569e-01 4.84576344e-01 4.85201091e-01 4.85825837e-01 4.86450613e-01 4.87075359e-01 4.87700105e-01 4.88324881e-01 4.88949627e-01 4.89574373e-01 4.90199149e-01 4.90823895e-01 4.91448641e-01 4.92073417e-01 4.92698163e-01 4.93322909e-01 4.93947685e-01 4.94572431e-01 4.95197177e-01 4.95821953e-01 4.96446699e-01 4.97071445e-01 4.97696221e-01 4.98320967e-01 4.98945713e-01 4.99570489e-01 5.00195265e-01 5.00819981e-01 5.01444757e-01 5.02069533e-01 5.02694249e-01 5.03319025e-01 5.03943801e-01 5.04568517e-01 5.05193293e-01 5.05818069e-01 5.06442785e-01 5.07067561e-01 5.07692337e-01 5.08317053e-01 5.08941829e-01 5.09566605e-01 5.10191321e-01 5.10816097e-01 5.11440873e-01 5.12065589e-01 5.12690365e-01 5.13315082e-01 5.13939857e-01 5.14564633e-01 5.15189350e-01 5.15814126e-01 5.16438901e-01 5.17063618e-01 5.17688394e-01 5.18313169e-01 5.18937886e-01 5.19562662e-01 5.20187438e-01 5.20812154e-01 5.21436930e-01 5.22061706e-01 5.22686422e-01 5.23311198e-01 5.23935974e-01 5.24560690e-01 5.25185466e-01 5.25810242e-01 5.26434958e-01 5.27059734e-01 5.27684510e-01 5.28309226e-01 5.28934002e-01 5.29558778e-01 5.30183494e-01 5.30808270e-01 5.31433046e-01 5.32057762e-01 5.32682538e-01 5.33307314e-01 5.33932030e-01 5.34556806e-01 5.35181582e-01 5.35806298e-01 5.36431074e-01 5.37055850e-01 5.37680566e-01 5.38305342e-01 5.38930118e-01 5.39554834e-01 5.40179610e-01 5.40804386e-01 5.41429102e-01 5.42053878e-01 5.42678654e-01 5.43303370e-01 5.43928146e-01 5.44552922e-01 5.45177639e-01 5.45802414e-01 5.46427190e-01 5.47051907e-01 5.47676682e-01 5.48301458e-01 5.48926175e-01 5.49550951e-01 5.50175726e-01 5.50800443e-01 5.51425219e-01 5.52049994e-01 5.52674711e-01 5.53299487e-01 5.53924263e-01 5.54548979e-01 5.55173755e-01 5.55798531e-01 5.56423247e-01 5.57048023e-01 5.57672799e-01 5.58297515e-01 5.58922291e-01 5.59547067e-01 5.60171783e-01 5.60796559e-01 5.61421335e-01 5.62046051e-01 5.62670827e-01 5.63295603e-01 5.63920319e-01 5.64545095e-01 5.65169871e-01 5.65794587e-01 5.66419363e-01 5.67044139e-01 5.67668855e-01 5.68293631e-01 5.68918407e-01 5.69543123e-01 5.70167899e-01 5.70792675e-01 5.71417391e-01 5.72042167e-01 5.72666943e-01 5.73291659e-01 5.73916435e-01 5.74541211e-01 5.75165927e-01 5.75790703e-01 5.76415479e-01 5.77040195e-01 5.77664971e-01 5.78289747e-01 5.78914464e-01 5.79539239e-01 5.80164015e-01 5.80788732e-01 5.81413507e-01 5.82038283e-01 5.82663000e-01 5.83287776e-01 5.83912551e-01 5.84537268e-01 5.85162044e-01 5.85786819e-01 5.86411536e-01 5.87036312e-01 5.87661088e-01 5.88285804e-01 5.88910580e-01 5.89535356e-01 5.90160072e-01 5.90784848e-01 5.91409624e-01 5.92034340e-01 5.92659116e-01 5.93283892e-01 5.93908608e-01 5.94533384e-01 5.95158160e-01 5.95782876e-01 5.96407652e-01 5.97032428e-01 5.97657144e-01 5.98281920e-01 5.98906696e-01 5.99531412e-01 6.00156188e-01 6.00780964e-01 6.01405680e-01 6.02030456e-01 6.02655232e-01 6.03279948e-01 6.03904724e-01 6.04529500e-01 6.05154216e-01 6.05778992e-01 6.06403768e-01 6.07028484e-01 6.07653260e-01 6.08278036e-01 6.08902752e-01 6.09527528e-01 6.10152304e-01 6.10777020e-01 6.11401796e-01 6.12026572e-01 6.12651289e-01 6.13276064e-01 6.13900840e-01 6.14525557e-01 6.15150332e-01 6.15775108e-01 6.16399825e-01 6.17024601e-01 6.17649376e-01 6.18274093e-01 6.18898869e-01 6.19523644e-01 6.20148361e-01 6.20773137e-01 6.21397913e-01 6.22022629e-01 6.22647405e-01 6.23272181e-01 6.23896897e-01 6.24521673e-01 6.25146449e-01 6.25771165e-01 6.26395941e-01 6.27020717e-01 6.27645433e-01 6.28270209e-01 6.28894985e-01 6.29519701e-01 6.30144477e-01 6.30769253e-01 6.31393969e-01 6.32018745e-01 6.32643521e-01 6.33268237e-01 6.33893013e-01 6.34517789e-01 6.35142505e-01 6.35767281e-01 6.36392057e-01 6.37016773e-01 6.37641549e-01 6.38266325e-01 6.38891041e-01 6.39515817e-01 6.40140593e-01 6.40765309e-01 6.41390085e-01 6.42014861e-01 6.42639577e-01 6.43264353e-01 6.43889129e-01 6.44513845e-01 6.45138621e-01 6.45763397e-01 6.46388113e-01 6.47012889e-01 6.47637665e-01 6.48262382e-01 6.48887157e-01 6.49511933e-01 6.50136650e-01 6.50761425e-01 6.51386201e-01 6.52010918e-01 6.52635694e-01 6.53260469e-01 6.53885186e-01 6.54509962e-01 6.55134737e-01 6.55759454e-01 6.56384230e-01 6.57009006e-01 6.57633722e-01 6.58258498e-01 6.58883274e-01 6.59507990e-01 6.60132766e-01 6.60757542e-01 6.61382258e-01 6.62007034e-01 6.62631810e-01 6.63256526e-01 6.63881302e-01 6.64506078e-01 6.65130794e-01 6.65755570e-01 6.66380346e-01 6.67005062e-01 6.67629838e-01 6.68254614e-01 6.68879330e-01 6.69504106e-01 6.70128882e-01 6.70753598e-01 6.71378374e-01 6.72003150e-01 6.72627866e-01 6.73252642e-01 6.73877418e-01 6.74502134e-01 6.75126910e-01 6.75751686e-01 6.76376402e-01 6.77001178e-01 6.77625954e-01 6.78250670e-01 6.78875446e-01 6.79500222e-01 6.80124938e-01 6.80749714e-01 6.81374490e-01 6.81999207e-01 6.82623982e-01 6.83248758e-01 6.83873475e-01 6.84498250e-01 6.85123026e-01 6.85747743e-01 6.86372519e-01 6.86997294e-01 6.87622011e-01 6.88246787e-01 6.88871562e-01 6.89496279e-01 6.90121055e-01 6.90745831e-01 6.91370547e-01 6.91995323e-01 6.92620099e-01 6.93244815e-01 6.93869591e-01 6.94494367e-01 6.95119083e-01 6.95743859e-01 6.96368635e-01 6.96993351e-01 6.97618127e-01 6.98242903e-01 6.98867619e-01 6.99492395e-01 7.00117171e-01 7.00741887e-01 7.01366663e-01 7.01991439e-01 7.02616155e-01 7.03240931e-01 7.03865707e-01 7.04490423e-01 7.05115199e-01 7.05739975e-01 7.06364691e-01 7.06989467e-01 7.07614183e-01 7.08238959e-01 7.08863735e-01 7.09488451e-01 7.10113227e-01 7.10738003e-01 7.11362720e-01 7.11987495e-01 7.12612271e-01 7.13236988e-01 7.13861763e-01 7.14486539e-01 7.15111256e-01 7.15736032e-01 7.16360807e-01 7.16985524e-01 7.17610300e-01 7.18235075e-01 7.18859792e-01 7.19484568e-01 7.20109344e-01 7.20734060e-01 7.21358836e-01 7.21983612e-01 7.22608328e-01 7.23233104e-01 7.23857880e-01 7.24482596e-01 7.25107372e-01 7.25732148e-01 7.26356864e-01 7.26981640e-01 7.27606416e-01 7.28231132e-01 7.28855908e-01 7.29480684e-01 7.30105400e-01 7.30730176e-01 7.31354952e-01 7.31979668e-01 7.32604444e-01 7.33229220e-01 7.33853936e-01 7.34478712e-01 7.35103488e-01 7.35728204e-01 7.36352980e-01 7.36977756e-01 7.37602472e-01 7.38227248e-01 7.38852024e-01 7.39476740e-01 7.40101516e-01 7.40726292e-01 7.41351008e-01 7.41975784e-01 7.42600560e-01 7.43225276e-01 7.43850052e-01 7.44474828e-01 7.45099545e-01 7.45724320e-01 7.46349096e-01 7.46973813e-01 7.47598588e-01 7.48223364e-01 7.48848081e-01 7.49472857e-01 7.50097632e-01 7.50722349e-01 7.51347125e-01 7.51971900e-01 7.52596617e-01 7.53221393e-01 7.53846169e-01 7.54470885e-01 7.55095661e-01 7.55720437e-01 7.56345153e-01 7.56969929e-01 7.57594705e-01 7.58219421e-01 7.58844197e-01 7.59468973e-01 7.60093689e-01 7.60718465e-01 7.61343241e-01 7.61967957e-01 7.62592733e-01 7.63217509e-01 7.63842225e-01 7.64467001e-01 7.65091777e-01 7.65716493e-01 7.66341269e-01 7.66966045e-01 7.67590761e-01 7.68215537e-01 7.68840313e-01 7.69465029e-01 7.70089805e-01 7.70714581e-01 7.71339297e-01 7.71964073e-01 7.72588849e-01 7.73213565e-01 7.73838341e-01 7.74463117e-01 7.75087833e-01 7.75712609e-01 7.76337385e-01 7.76962101e-01 7.77586877e-01 7.78211653e-01 7.78836370e-01 7.79461145e-01 7.80085921e-01 7.80710638e-01 7.81335413e-01 7.81960189e-01 7.82584906e-01 7.83209682e-01 7.83834457e-01 7.84459174e-01 7.85083950e-01 7.85708725e-01 7.86333442e-01 7.86958218e-01 7.87582994e-01 7.88207710e-01 7.88832486e-01 7.89457262e-01 7.90081978e-01 7.90706754e-01 7.91331530e-01 7.91956246e-01 7.92581022e-01 7.93205798e-01 7.93830514e-01 7.94455290e-01 7.95080066e-01 7.95704782e-01 7.96329558e-01 7.96954334e-01 7.97579050e-01 7.98203826e-01 7.98828602e-01 7.99453318e-01 8.00078094e-01 8.00702870e-01 8.01327586e-01 8.01952362e-01 8.02577138e-01 8.03201854e-01 8.03826630e-01 8.04451406e-01 8.05076122e-01 8.05700898e-01 8.06325674e-01 8.06950390e-01 8.07575166e-01 8.08199942e-01 8.08824658e-01 8.09449434e-01 8.10074210e-01 8.10698926e-01 8.11323702e-01 8.11948478e-01 8.12573195e-01 8.13197970e-01 8.13822746e-01 8.14447463e-01 8.15072238e-01 8.15697014e-01 8.16321731e-01 8.16946507e-01 8.17571282e-01 8.18195999e-01 8.18820775e-01 8.19445550e-01 8.20070267e-01 8.20695043e-01 8.21319818e-01 8.21944535e-01 8.22569311e-01 8.23194087e-01 8.23818803e-01 8.24443579e-01 8.25068355e-01 8.25693071e-01 8.26317847e-01 8.26942623e-01 8.27567339e-01 8.28192115e-01 8.28816891e-01 8.29441607e-01 8.30066383e-01 8.30691159e-01 8.31315875e-01 8.31940651e-01 8.32565427e-01 8.33190143e-01 8.33814919e-01 8.34439695e-01 8.35064411e-01 8.35689187e-01 8.36313963e-01 8.36938679e-01 8.37563455e-01 8.38188231e-01 8.38812947e-01 8.39437723e-01 8.40062499e-01 8.40687215e-01 8.41311991e-01 8.41936767e-01 8.42561483e-01 8.43186259e-01 8.43811035e-01 8.44435751e-01 8.45060527e-01 8.45685303e-01 8.46310019e-01 8.46934795e-01 8.47559571e-01 8.48184288e-01 8.48809063e-01 8.49433839e-01 8.50058556e-01 8.50683331e-01 8.51308107e-01 8.51932824e-01 8.52557600e-01 8.53182375e-01 8.53807092e-01 8.54431868e-01 8.55056643e-01 8.55681360e-01 8.56306136e-01 8.56930912e-01 8.57555628e-01 8.58180404e-01 8.58805180e-01 8.59429896e-01 8.60054672e-01 8.60679448e-01 8.61304164e-01 8.61928940e-01 8.62553716e-01 8.63178432e-01 8.63803208e-01 8.64427984e-01 8.65052700e-01 8.65677476e-01 8.66302252e-01 8.66926968e-01 8.67551744e-01 8.68176520e-01 8.68801236e-01 8.69426012e-01 8.70050788e-01 8.70675504e-01 8.71300280e-01 8.71925056e-01 8.72549772e-01 8.73174548e-01 8.73799324e-01 8.74424040e-01 8.75048816e-01 8.75673592e-01 8.76298308e-01 8.76923084e-01 8.77547860e-01 8.78172576e-01 8.78797352e-01 8.79422128e-01 8.80046844e-01 8.80671620e-01 8.81296396e-01 8.81921113e-01 8.82545888e-01 8.83170664e-01 8.83795381e-01 8.84420156e-01 8.85044932e-01 8.85669649e-01 8.86294425e-01 8.86919200e-01 8.87543917e-01 8.88168693e-01 8.88793468e-01 8.89418185e-01 8.90042961e-01 8.90667737e-01 8.91292453e-01 8.91917229e-01 8.92542005e-01 8.93166721e-01 8.93791497e-01 8.94416273e-01 8.95040989e-01 8.95665765e-01 8.96290541e-01 8.96915257e-01 8.97540033e-01 8.98164809e-01 8.98789525e-01 8.99414301e-01 9.00039077e-01 9.00663793e-01 9.01288569e-01 9.01913345e-01 9.02538061e-01 9.03162837e-01 9.03787553e-01 9.04412329e-01 9.05037105e-01 9.05661821e-01 9.06286597e-01 9.06911373e-01 9.07536089e-01 9.08160865e-01 9.08785641e-01 9.09410357e-01 9.10035133e-01 9.10659909e-01 9.11284626e-01 9.11909401e-01 9.12534177e-01 9.13158894e-01 9.13783669e-01 9.14408445e-01 9.15033162e-01 9.15657938e-01 9.16282713e-01 9.16907430e-01 9.17532206e-01 9.18156981e-01 9.18781698e-01 9.19406474e-01 9.20031250e-01 9.20655966e-01 9.21280742e-01 9.21905518e-01 9.22530234e-01 9.23155010e-01 9.23779786e-01 9.24404502e-01 9.25029278e-01 9.25654054e-01 9.26278770e-01 9.26903546e-01 9.27528322e-01 9.28153038e-01 9.28777814e-01 9.29402590e-01 9.30027306e-01 9.30652082e-01 9.31276858e-01 9.31901574e-01 9.32526350e-01 9.33151126e-01 9.33775842e-01 9.34400618e-01 9.35025394e-01 9.35650110e-01 9.36274886e-01 9.36899662e-01 9.37524378e-01 9.38149154e-01 9.38773930e-01 9.39398646e-01 9.40023422e-01 9.40648198e-01 9.41272914e-01 9.41897690e-01 9.42522466e-01 9.43147182e-01 9.43771958e-01 9.44396734e-01 9.45021451e-01 9.45646226e-01 9.46271002e-01 9.46895719e-01 9.47520494e-01 9.48145270e-01 9.48769987e-01 9.49394763e-01 9.50019538e-01 9.50644255e-01 9.51269031e-01 9.51893806e-01 9.52518523e-01 9.53143299e-01 9.53768075e-01 9.54392791e-01 9.55017567e-01 9.55642343e-01 9.56267059e-01 9.56891835e-01 9.57516611e-01 9.58141327e-01 9.58766103e-01 9.59390879e-01 9.60015595e-01 9.60640371e-01 9.61265147e-01 9.61889863e-01 9.62514639e-01 9.63139415e-01 9.63764131e-01 9.64388907e-01 9.65013683e-01 9.65638399e-01 9.66263175e-01 9.66887951e-01 9.67512667e-01 9.68137443e-01 9.68762219e-01 9.69386935e-01 9.70011711e-01 9.70636487e-01 9.71261203e-01 9.71885979e-01 9.72510755e-01 9.73135471e-01 9.73760247e-01 9.74385023e-01 9.75009739e-01 9.75634515e-01 9.76259291e-01 9.76884007e-01 9.77508783e-01 9.78133559e-01 9.78758276e-01 9.79383051e-01 9.80007827e-01 9.80632544e-01 9.81257319e-01 9.81882095e-01 9.82506812e-01 9.83131588e-01 9.83756363e-01 9.84381080e-01 9.85005856e-01 9.85630631e-01 9.86255348e-01 9.86880124e-01 9.87504900e-01 9.88129616e-01 9.88754392e-01 9.89379168e-01 9.90003884e-01 9.90628660e-01 9.91253436e-01 9.91878152e-01 9.92502928e-01 9.93127704e-01 9.93752420e-01 9.94377196e-01 9.95001972e-01 9.95626688e-01 9.96251464e-01 9.96876240e-01 9.97500956e-01 9.98125732e-01 9.98750508e-01 9.99375224e-01 1.00000000e+00 
            </Histogram>
            <HistogramBinning NBins="1601">
              -1.11375666e+00 -1.11365664e+00 -9.45795357e-01 -8.83214712e-01 -8.39906812e-01 -7.97036707e-01 -7.76377916e-01 -7.49756992e-01 -7.33753920e-01 -7.25411415e-01 -7.11074710e-01 -6.96789026e-01 -6.84149146e-01 -6.74604893e-01 -6.60953343e-01 -6.51862741e-01 -6.46137595e-01 -6.39763236e-01 -6.31212234e-01 -6.23591065e-01 -6.14791751e-01 -6.11584604e-01 -6.05702758e-01 -5.99389553e-01 -5.92270017e-01 -5.83918989e-01 -5.79427898e-01 -5.74995399e-01 -5.70730567e-01 -5.66147327e-01 -5.60029566e-01 -5.56941688e-01 -5.52578747e-01 -5.49306750e-01 -5.45115709e-01 -5.41582644e-01 -5.37085891e-01 -5.30153394e-01 -5.26947200e-01 -5.23687899e-01 -5.20900369e-01 -5.18455207e-01 -5.15449166e-01 -5.12790143e-01 -5.10551333e-01 -5.08745551e-01 -5.05240440e-01 -5.02784073e-01 -5.00751078e-01 -4.97655630e-01 -4.95512724e-01 -4.91699755e-01 -4.89070863e-01 -4.84147161e-01 -4.79832590e-01 -4.77227986e-01 -4.74615246e-01 -4.70700264e-01 -4.67395604e-01 -4.63978380e-01 -4.61582452e-01 -4.59607214e-01 -4.58495975e-01 -4.55494583e-01 -4.52817559e-01 -4.50612843e-01 -4.48129684e-01 -4.45506394e-01 -4.42967921e-01 -4.41836864e-01 -4.40551043e-01 -4.37024206e-01 -4.34286714e-01 -4.31725979e-01 -4.29480165e-01 -4.27752048e-01 -4.25670594e-01 -4.23416585e-01 -4.20689344e-01 -4.17351454e-01 -4.16252196e-01 -4.14057553e-01 -4.12209123e-01 -4.10147756e-01 -4.07178849e-01 -4.05750155e-01 -4.03362423e-01 -4.00904804e-01 -3.98142695e-01 -3.95048559e-01 -3.93836737e-01 -3.91836405e-01 -3.89076769e-01 -3.87536556e-01 -3.85094404e-01 -3.83415163e-01 -3.81235480e-01 -3.79093379e-01 -3.76734167e-01 -3.74596834e-01 -3.71730208e-01 -3.70087892e-01 -3.68104756e-01 -3.67130548e-01 -3.65227550e-01 -3.63413900e-01 -3.61028492e-01 -3.59594017e-01 -3.57932478e-01 -3.55969548e-01 -3.54662865e-01 -3.53716612e-01 -3.52070928e-01 -3.50182354e-01 -3.48390728e-01 -3.47464085e-01 -3.45713198e-01 -3.44148725e-01 -3.42584729e-01 -3.40758383e-01 -3.39141130e-01 -3.37048650e-01 -3.35034460e-01 -3.33744347e-01 -3.32303256e-01 -3.31346244e-01 -3.29070896e-01 -3.28222036e-01 -3.27351481e-01 -3.26069623e-01 -3.24438572e-01 -3.23161334e-01 -3.21818322e-01 -3.20852041e-01 -3.19878966e-01 -3.18954945e-01 -3.18141967e-01 -3.15981776e-01 -3.14864993e-01 -3.13395649e-01 -3.11574161e-01 -3.10615718e-01 -3.08521986e-01 -3.07271987e-01 -3.06318462e-01 -3.04524839e-01 -3.03376377e-01 -3.02238375e-01 -3.01557392e-01 -3.00296724e-01 -2.98495770e-01 -2.96602160e-01 -2.95397669e-01 -2.93791682e-01 -2.92886972e-01 -2.91459739e-01 -2.90009707e-01 -2.88112551e-01 -2.87035674e-01 -2.85849959e-01 -2.85137743e-01 -2.83766717e-01 -2.82184094e-01 -2.81135529e-01 -2.80092806e-01 -2.79357702e-01 -2.78612792e-01 -2.77328968e-01 -2.76089102e-01 -2.74302393e-01 -2.73206860e-01 -2.72064716e-01 -2.70911902e-01 -2.69785881e-01 -2.68974245e-01 -2.67550617e-01 -2.66557813e-01 -2.65306652e-01 -2.64086753e-01 -2.63011307e-01 -2.61318743e-01 -2.59335548e-01 -2.57975966e-01 -2.56572962e-01 -2.54394770e-01 -2.53162682e-01 -2.51759261e-01 -2.50719696e-01 -2.49447033e-01 -2.47828871e-01 -2.46589124e-01 -2.44934738e-01 -2.42961496e-01 -2.40851238e-01 -2.39830226e-01 -2.38259912e-01 -2.36891508e-01 -2.35326797e-01 -2.34392256e-01 -2.33742729e-01 -2.32638523e-01 -2.31253475e-01 -2.30173737e-01 -2.28455663e-01 -2.27261513e-01 -2.26082444e-01 -2.24591181e-01 -2.23149404e-01 -2.21995786e-01 -2.20244169e-01 -2.19177976e-01 -2.18577698e-01 -2.17134461e-01 -2.16116339e-01 -2.15085298e-01 -2.13760868e-01 -2.12926492e-01 -2.12450042e-01 -2.11581796e-01 -2.10457861e-01 -2.09491953e-01 -2.08233953e-01 -2.07721606e-01 -2.06029654e-01 -2.04195976e-01 -2.03099474e-01 -2.02188104e-01 -2.00631022e-01 -1.98716983e-01 -1.97983339e-01 -1.96431071e-01 -1.94779351e-01 -1.93053976e-01 -1.91657767e-01 -1.90587074e-01 -1.88975617e-01 -1.87310025e-01 -1.85916543e-01 -1.84374899e-01 -1.82988271e-01 -1.82197541e-01 -1.81400687e-01 -1.80788174e-01 -1.79473579e-01 -1.77466035e-01 -1.76833838e-01 -1.75794557e-01 -1.74972743e-01 -1.72943726e-01 -1.71711728e-01 -1.71072528e-01 -1.70380086e-01 -1.69661328e-01 -1.67999983e-01 -1.66641772e-01 -1.65774837e-01 -1.65332749e-01 -1.64307147e-01 -1.62976474e-01 -1.61982879e-01 -1.60740748e-01 -1.59112841e-01 -1.57896638e-01 -1.56899020e-01 -1.55255660e-01 -1.54467359e-01 -1.53341979e-01 -1.52285680e-01 -1.51044056e-01 -1.49645090e-01 -1.48862943e-01 -1.48215994e-01 -1.47221044e-01 -1.46386087e-01 -1.45800784e-01 -1.44353956e-01 -1.42979190e-01 -1.42271414e-01 -1.41267255e-01 -1.38796866e-01 -1.37715995e-01 -1.36672214e-01 -1.35868102e-01 -1.34940505e-01 -1.33527771e-01 -1.32407248e-01 -1.31567866e-01 -1.30824804e-01 -1.29755586e-01 -1.28441676e-01 -1.27310276e-01 -1.26645401e-01 -1.25852406e-01 -1.24997720e-01 -1.22859336e-01 -1.21739209e-01 -1.20869674e-01 -1.19515739e-01 -1.19011275e-01 -1.17472425e-01 -1.16584077e-01 -1.14899687e-01 -1.14110321e-01 -1.13117337e-01 -1.11126244e-01 -1.09850600e-01 -1.08708397e-01 -1.07851841e-01 -1.07183456e-01 -1.06279649e-01 -1.04920290e-01 -1.03847258e-01 -1.02914430e-01 -1.01325378e-01 -9.96757597e-02 -9.81051996e-02 -9.70951542e-02 -9.61505026e-02 -9.45673734e-02 -9.37531590e-02 -9.25320983e-02 -9.18002799e-02 -9.07267779e-02 -8.96094516e-02 -8.79491568e-02 -8.68289620e-02 -8.59173909e-02 -8.50198790e-02 -8.38152617e-02 -8.16679746e-02 -8.05116743e-02 -7.92521983e-02 -7.81222135e-02 -7.73292929e-02 -7.63824284e-02 -7.57433996e-02 -7.50689730e-02 -7.40538687e-02 -7.22276270e-02 -7.06264973e-02 -6.96408600e-02 -6.87393248e-02 -6.76965863e-02 -6.66578263e-02 -6.55574426e-02 -6.43592626e-02 -6.28758147e-02 -6.19343519e-02 -6.05463795e-02 -5.90209216e-02 -5.83688542e-02 -5.66250533e-02 -5.57760186e-02 -5.44236191e-02 -5.32592833e-02 -5.21278270e-02 -5.07854596e-02 -4.90520857e-02 -4.84586582e-02 -4.71486859e-02 -4.65928800e-02 -4.53667492e-02 -4.46937867e-02 -4.30891141e-02 -4.23683263e-02 -4.14156839e-02 -4.09653261e-02 -3.92146744e-02 -3.83009724e-02 -3.71511169e-02 -3.61334048e-02 -3.50160562e-02 -3.37150767e-02 -3.25259566e-02 -3.15884054e-02 -3.06272022e-02 -2.84659527e-02 -2.77174134e-02 -2.70444266e-02 -2.60237791e-02 -2.43071951e-02 -2.30068937e-02 -2.21804772e-02 -2.15350073e-02 -2.04838831e-02 -1.96337122e-02 -1.87747274e-02 -1.74257122e-02 -1.62946377e-02 -1.51574472e-02 -1.32859480e-02 -1.17304167e-02 -1.07794423e-02 -9.67767835e-03 -8.53706524e-03 -7.02666957e-03 -5.94492815e-03 -5.09376870e-03 -3.81480553e-03 -3.00337747e-03 -1.85785757e-03 -9.22308478e-04 2.30181642e-04 1.84668181e-03 2.75595160e-03 4.05018078e-03 4.90421383e-03 6.35487027e-03 7.43294321e-03 9.17491969e-03 9.97166056e-03 1.13504333e-02 1.19360443e-02 1.24630891e-02 1.39394822e-02 1.53877968e-02 1.65373962e-02 1.76698640e-02 1.89685319e-02 2.01126430e-02 2.11440381e-02 2.24770773e-02 2.39491723e-02 2.50866804e-02 2.61903666e-02 2.68886648e-02 2.77385842e-02 2.82717757e-02 2.94571854e-02 3.11936866e-02 3.20613720e-02 3.32478397e-02 3.43753099e-02 3.53887640e-02 3.67384367e-02 3.74270789e-02 3.80760469e-02 3.96560952e-02 4.12058309e-02 4.17851023e-02 4.24511656e-02 4.43993546e-02 4.52150777e-02 4.79714796e-02 4.96622771e-02 5.06173931e-02 5.13802208e-02 5.25195897e-02 5.36978915e-02 5.45939058e-02 5.56841046e-02 5.64658344e-02 5.74014187e-02 5.84761351e-02 5.95340692e-02 6.04851283e-02 6.11710362e-02 6.25938177e-02 6.32926822e-02 6.47412911e-02 6.58006668e-02 6.70118108e-02 6.82410151e-02 6.88368455e-02 6.99005499e-02 7.03973100e-02 7.17254654e-02 7.25837797e-02 7.35406801e-02 7.50498921e-02 7.57549629e-02 7.64768571e-02 7.73173794e-02 7.82767758e-02 7.89819732e-02 7.96562657e-02 8.06067064e-02 8.17101672e-02 8.25582743e-02 8.40706229e-02 8.48875865e-02 8.65634084e-02 8.86516050e-02 8.97291079e-02 9.12218466e-02 9.25900862e-02 9.39492211e-02 9.49851349e-02 9.61985290e-02 9.75697860e-02 9.93083119e-02 9.98182297e-02 1.00788794e-01 1.01626776e-01 1.02672748e-01 1.04433037e-01 1.05171062e-01 1.06205501e-01 1.06840506e-01 1.07573308e-01 1.08478270e-01 1.09893680e-01 1.10444628e-01 1.11296073e-01 1.12533011e-01 1.14282422e-01 1.15145154e-01 1.16259277e-01 1.17119089e-01 1.18052728e-01 1.18837699e-01 1.19567685e-01 1.21208265e-01 1.22251280e-01 1.23735532e-01 1.24678060e-01 1.26053780e-01 1.26630589e-01 1.27476156e-01 1.28874794e-01 1.30100340e-01 1.31408155e-01 1.32211015e-01 1.33767843e-01 1.34857729e-01 1.35951623e-01 1.37039945e-01 1.38274282e-01 1.39319554e-01 1.41120374e-01 1.42179221e-01 1.43364385e-01 1.44253865e-01 1.45456627e-01 1.46055728e-01 1.47655874e-01 1.48563012e-01 1.49718240e-01 1.50497213e-01 1.51665211e-01 1.52672306e-01 1.54002160e-01 1.55571863e-01 1.56754822e-01 1.57486200e-01 1.58987522e-01 1.60591811e-01 1.61168411e-01 1.62195623e-01 1.62848979e-01 1.64179027e-01 1.65316060e-01 1.66225836e-01 1.67794183e-01 1.68938532e-01 1.70589834e-01 1.71644643e-01 1.72601283e-01 1.73634112e-01 1.74409613e-01 1.75242230e-01 1.76828697e-01 1.78485379e-01 1.79475099e-01 1.81301624e-01 1.82881132e-01 1.83787853e-01 1.85063332e-01 1.86307937e-01 1.87162548e-01 1.88667312e-01 1.90242022e-01 1.91736862e-01 1.92887530e-01 1.94151133e-01 1.95043758e-01 1.95979953e-01 1.97037995e-01 1.98698044e-01 1.99918255e-01 2.01263487e-01 2.02202857e-01 2.04055592e-01 2.05666393e-01 2.07245916e-01 2.08333194e-01 2.09210500e-01 2.10870922e-01 2.12358475e-01 2.13820875e-01 2.15188250e-01 2.16648489e-01 2.17630461e-01 2.18776673e-01 2.19744772e-01 2.20657125e-01 2.22157389e-01 2.23514214e-01 2.24675491e-01 2.26363435e-01 2.28088632e-01 2.29286358e-01 2.30932713e-01 2.32500404e-01 2.34012455e-01 2.35678345e-01 2.37401277e-01 2.38219947e-01 2.39565149e-01 2.41000548e-01 2.42370024e-01 2.44299933e-01 2.45398045e-01 2.46642917e-01 2.48167202e-01 2.49552473e-01 2.50629008e-01 2.51875162e-01 2.54006982e-01 2.55774260e-01 2.56798387e-01 2.58106232e-01 2.59352148e-01 2.60660827e-01 2.62081683e-01 2.63450265e-01 2.64756083e-01 2.66238183e-01 2.67640263e-01 2.68150002e-01 2.69349754e-01 2.70597279e-01 2.71671146e-01 2.72670180e-01 2.73958951e-01 2.74667978e-01 2.76122004e-01 2.78278708e-01 2.78911293e-01 2.80531615e-01 2.81488955e-01 2.82526791e-01 2.83874899e-01 2.84455717e-01 2.86655247e-01 2.87620723e-01 2.89846510e-01 2.90884972e-01 2.91571379e-01 2.93071479e-01 2.94510603e-01 2.95674264e-01 2.96938866e-01 2.97935486e-01 2.99465418e-01 3.02264541e-01 3.03452611e-01 3.04853231e-01 3.06370378e-01 3.07722211e-01 3.09226781e-01 3.10744673e-01 3.12368393e-01 3.13874274e-01 3.16128761e-01 3.18084657e-01 3.18361938e-01 3.19952548e-01 3.21306258e-01 3.22400749e-01 3.23004365e-01 3.24508250e-01 3.25829238e-01 3.27189863e-01 3.28214198e-01 3.29092503e-01 3.30200821e-01 3.32153678e-01 3.33353043e-01 3.35181624e-01 3.36770177e-01 3.38079780e-01 3.40160221e-01 3.42986315e-01 3.44190568e-01 3.46318245e-01 3.47140044e-01 3.48520249e-01 3.49667877e-01 3.51220191e-01 3.52910072e-01 3.54337245e-01 3.55281830e-01 3.56527805e-01 3.57346326e-01 3.58853787e-01 3.61127824e-01 3.62356275e-01 3.64312798e-01 3.65794629e-01 3.68304491e-01 3.71203512e-01 3.72973979e-01 3.74226809e-01 3.74823630e-01 3.77627075e-01 3.79543543e-01 3.81184518e-01 3.84486407e-01 3.86179388e-01 3.87781918e-01 3.89075547e-01 3.92157018e-01 3.94874722e-01 3.96611571e-01 3.97758484e-01 3.99682164e-01 4.01827276e-01 4.04638559e-01 4.05484408e-01 4.08003986e-01 4.09865230e-01 4.11215365e-01 4.13152844e-01 4.17363137e-01 4.19215232e-01 4.22037959e-01 4.23911273e-01 4.25530344e-01 4.27380770e-01 4.29578215e-01 4.31877881e-01 4.34856325e-01 4.37286586e-01 4.39624310e-01 4.40524250e-01 4.42875147e-01 4.45161432e-01 4.47806418e-01 4.50256675e-01 4.52610254e-01 4.55066055e-01 4.56516355e-01 4.58734035e-01 4.61532027e-01 4.63027120e-01 4.64315444e-01 4.67042655e-01 4.70743597e-01 4.74554539e-01 4.77652401e-01 4.80789006e-01 4.82914239e-01 4.85979587e-01 4.90906090e-01 4.93565321e-01 4.97693807e-01 4.99981344e-01 5.03078401e-01 5.06873667e-01 5.10491252e-01 5.14294028e-01 5.17238140e-01 5.20491779e-01 5.22947133e-01 5.26083291e-01 5.28591096e-01 5.32247484e-01 5.35470545e-01 5.39559484e-01 5.43496251e-01 5.49187422e-01 5.54793596e-01 5.60021579e-01 5.65892339e-01 5.69509029e-01 5.78108311e-01 5.85955799e-01 5.91806173e-01 5.97242415e-01 5.99208355e-01 6.04519367e-01 6.12375915e-01 6.17801964e-01 6.25850797e-01 6.29533410e-01 6.35536015e-01 6.45993114e-01 6.49878144e-01 6.59578979e-01 6.76534057e-01 6.87346637e-01 7.01508105e-01 7.13596284e-01 7.36503303e-01 7.54205644e-01 7.70495415e-01 7.94162691e-01 8.14669251e-01 8.38382125e-01 8.75865579e-01 9.44592476e-01 1.01595414e+00 1.11761487e+00 1.29590356e+00 1.37704623e+00 1.45021141e+00 1.53845167e+00 1.58617604e+00 1.61641836e+00 1.67163122e+00 1.72229874e+00 1.75071490e+00 1.78961778e+00 1.82016790e+00 1.86630368e+00 1.90566242e+00 1.94678807e+00 1.96839952e+00 1.99133539e+00 2.01994824e+00 2.05307794e+00 2.07298160e+00 2.09756827e+00 2.11387849e+00 2.13340354e+00 2.15209389e+00 2.16945386e+00 2.18153119e+00 2.19114900e+00 2.20218015e+00 2.21685195e+00 2.22569537e+00 2.23523307e+00 2.24761009e+00 2.26131797e+00 2.27648497e+00 2.28978658e+00 2.29527354e+00 2.31374097e+00 2.32128501e+00 2.34007740e+00 2.35851145e+00 2.37917638e+00 2.38893461e+00 2.39825821e+00 2.40644073e+00 2.41445851e+00 2.42288542e+00 2.43264270e+00 2.44280505e+00 2.45550942e+00 2.46528029e+00 2.48056889e+00 2.49423862e+00 2.50540018e+00 2.51249361e+00 2.51569486e+00 2.52652669e+00 2.53799343e+00 2.54785872e+00 2.56155396e+00 2.56814122e+00 2.57252121e+00 2.58035398e+00 2.58718896e+00 2.59247708e+00 2.60007167e+00 2.60815215e+00 2.62065601e+00 2.63393164e+00 2.64097071e+00 2.64830470e+00 2.65577912e+00 2.66227150e+00 2.67550588e+00 2.67867780e+00 2.68897891e+00 2.69429851e+00 2.70294285e+00 2.70795226e+00 2.71278429e+00 2.72657585e+00 2.73075747e+00 2.73492432e+00 2.74073219e+00 2.74527407e+00 2.74948525e+00 2.75485873e+00 2.76145291e+00 2.76528311e+00 2.76966977e+00 2.77517891e+00 2.78256035e+00 2.78672147e+00 2.79531527e+00 2.80172944e+00 2.80778861e+00 2.81185699e+00 2.81907248e+00 2.82433414e+00 2.83084297e+00 2.83666325e+00 2.84630036e+00 2.84945416e+00 2.85449815e+00 2.85891294e+00 2.86555982e+00 2.87187290e+00 2.88066673e+00 2.88564897e+00 2.89232397e+00 2.90072918e+00 2.90778875e+00 2.91462708e+00 2.92404199e+00 2.92976141e+00 2.93519568e+00 2.94126678e+00 2.94910479e+00 2.95217323e+00 2.95679617e+00 2.96247411e+00 2.96942592e+00 2.97562099e+00 2.98290563e+00 2.98982310e+00 2.99374962e+00 2.99895000e+00 3.00347972e+00 3.00692177e+00 3.01100159e+00 3.01396012e+00 3.01865125e+00 3.02229619e+00 3.02669263e+00 3.03140330e+00 3.03672814e+00 3.04144096e+00 3.04619718e+00 3.05209374e+00 3.05597854e+00 3.05951071e+00 3.06191087e+00 3.06706762e+00 3.07249475e+00 3.07606173e+00 3.07779360e+00 3.08393383e+00 3.08751369e+00 3.09320378e+00 3.09699035e+00 3.10233521e+00 3.10888791e+00 3.11395407e+00 3.11608267e+00 3.12219834e+00 3.12551880e+00 3.12903166e+00 3.13831568e+00 3.14216352e+00 3.14641833e+00 3.15432668e+00 3.16012287e+00 3.16417861e+00 3.16802239e+00 3.17266846e+00 3.17714977e+00 3.18174529e+00 3.18613124e+00 3.19120216e+00 3.19637871e+00 3.20161986e+00 3.20670319e+00 3.20928335e+00 3.21452141e+00 3.21729541e+00 3.22268224e+00 3.22790909e+00 3.22970128e+00 3.23414326e+00 3.23932004e+00 3.24288344e+00 3.24945736e+00 3.25570941e+00 3.25958872e+00 3.26386166e+00 3.26857901e+00 3.27399707e+00 3.27702379e+00 3.28045845e+00 3.28429985e+00 3.29077315e+00 3.29581118e+00 3.29973102e+00 3.30169201e+00 3.30456686e+00 3.30761504e+00 3.31204557e+00 3.31886578e+00 3.32199287e+00 3.32601118e+00 3.32810307e+00 3.33091545e+00 3.33384418e+00 3.33669019e+00 3.34070587e+00 3.34461164e+00 3.34795523e+00 3.35134864e+00 3.35337901e+00 3.35702085e+00 3.36090255e+00 3.36562586e+00 3.36929822e+00 3.37251425e+00 3.37788224e+00 3.38287544e+00 3.38850093e+00 3.39206457e+00 3.39586854e+00 3.39882660e+00 3.40188646e+00 3.40514135e+00 3.40933347e+00 3.41305065e+00 3.41857219e+00 3.42069411e+00 3.42488122e+00 3.42929578e+00 3.43441105e+00 3.43838787e+00 3.44295859e+00 3.44847131e+00 3.45259309e+00 3.45535040e+00 3.45885229e+00 3.46248364e+00 3.46503949e+00 3.46736264e+00 3.46982026e+00 3.47395539e+00 3.47914028e+00 3.48224235e+00 3.48441768e+00 3.48898935e+00 3.49223042e+00 3.49799347e+00 3.50290036e+00 3.50559950e+00 3.50812149e+00 3.51158643e+00 3.51508617e+00 3.51891160e+00 3.52153349e+00 3.52358079e+00 3.52676654e+00 3.53117728e+00 3.53455186e+00 3.53986597e+00 3.54137468e+00 3.54456306e+00 3.54706216e+00 3.54895115e+00 3.55234814e+00 3.55770636e+00 3.56176329e+00 3.56356668e+00 3.56665301e+00 3.56957173e+00 3.57252097e+00 3.57546854e+00 3.57977962e+00 3.58327937e+00 3.58752298e+00 3.59137583e+00 3.59441161e+00 3.59894252e+00 3.60329628e+00 3.60744834e+00 3.61191916e+00 3.61405468e+00 3.61719155e+00 3.62034774e+00 3.62585258e+00 3.62812090e+00 3.63046956e+00 3.63280725e+00 3.63854480e+00 3.64181328e+00 3.64641285e+00 3.64921808e+00 3.65564156e+00 3.65901780e+00 3.66193247e+00 3.66449761e+00 3.66772795e+00 3.67122173e+00 3.67511702e+00 3.68175435e+00 3.68390012e+00 3.68844223e+00 3.69106817e+00 3.69500613e+00 3.69894886e+00 3.70750642e+00 3.70905614e+00 3.71350074e+00 3.71826267e+00 3.72108984e+00 3.72385621e+00 3.72604799e+00 3.73017263e+00 3.73289061e+00 3.73591495e+00 3.73755407e+00 3.74200773e+00 3.74561453e+00 3.74831676e+00 3.75316668e+00 3.75618124e+00 3.76001143e+00 3.76456857e+00 3.76775837e+00 3.77033520e+00 3.77350307e+00 3.77659559e+00 3.78126645e+00 3.78541970e+00 3.78803039e+00 3.78998947e+00 3.79350305e+00 3.79530454e+00 3.79910231e+00 3.80398464e+00 3.80725980e+00 3.81088686e+00 3.81454706e+00 3.81810999e+00 3.82063603e+00 3.82204604e+00 3.82451677e+00 3.82915211e+00 3.83329940e+00 3.83614302e+00 3.83854175e+00 3.84096813e+00 3.84359694e+00 3.84649587e+00 3.84827280e+00 3.85280228e+00 3.85733604e+00 3.86079979e+00 3.86304760e+00 3.86533141e+00 3.86865759e+00 3.87260509e+00 3.87665176e+00 3.87953663e+00 3.88412619e+00 3.88626099e+00 3.89100957e+00 3.89484239e+00 3.89831924e+00 3.90268230e+00 3.90520215e+00 3.90713906e+00 3.90989995e+00 3.91185164e+00 3.91443920e+00 3.91780758e+00 3.92402411e+00 3.92681623e+00 3.93092227e+00 3.93393230e+00 3.93787622e+00 3.94146276e+00 3.94477224e+00 3.94888783e+00 3.95094633e+00 3.95309019e+00 3.95646834e+00 3.95871472e+00 3.96261501e+00 3.96516156e+00 3.96834898e+00 3.97006035e+00 3.97466063e+00 3.97756076e+00 3.97972894e+00 3.98254275e+00 3.98452973e+00 3.98751616e+00 3.98875117e+00 3.99206328e+00 3.99449468e+00 3.99700761e+00 4.00052929e+00 4.00309372e+00 4.00609589e+00 4.01167870e+00 4.01507521e+00 4.01854324e+00 4.02075481e+00 4.02393818e+00 4.02720165e+00 4.02967691e+00 4.03134203e+00 4.03455544e+00 4.03763485e+00 4.03878212e+00 4.04448032e+00 4.04720831e+00 4.04879332e+00 4.05251169e+00 4.05619574e+00 4.06011915e+00 4.06275988e+00 4.06562471e+00 4.06726551e+00 4.06955528e+00 4.07372427e+00 4.07636642e+00 4.07859945e+00 4.08147717e+00 4.08292198e+00 4.08483934e+00 4.08815908e+00 4.09033060e+00 4.09197092e+00 4.09587193e+00 4.09851360e+00 4.10136461e+00 4.10505342e+00 4.10720873e+00 4.10987043e+00 4.11229181e+00 4.11447382e+00 4.11665773e+00 4.11861849e+00 4.12258053e+00 4.12411499e+00 4.12717819e+00 4.12875175e+00 4.13203955e+00 4.13520527e+00 4.13753223e+00 4.13955832e+00 4.14214230e+00 4.14685583e+00 4.15060472e+00 4.15349627e+00 4.15641308e+00 4.16041708e+00 4.16471577e+00 4.16576529e+00 4.16918135e+00 4.17353678e+00 4.17597151e+00 4.17826509e+00 4.18073845e+00 4.18487883e+00 4.18695116e+00 4.19035625e+00 4.19454336e+00 4.19881725e+00 4.20136166e+00 4.20522547e+00 4.20788431e+00 4.21117306e+00 4.21532822e+00 4.21800375e+00 4.22084284e+00 4.22364950e+00 4.22709799e+00 4.23079157e+00 4.23242569e+00 4.23387623e+00 4.23694134e+00 4.24175978e+00 4.24519300e+00 4.24704409e+00 4.24921036e+00 4.25299025e+00 4.25668955e+00 4.25924969e+00 4.26287842e+00 4.26551867e+00 4.26893663e+00 4.27144480e+00 4.27676630e+00 4.27898884e+00 4.28074932e+00 4.28498936e+00 4.28809595e+00 4.29049015e+00 4.29533482e+00 4.29933786e+00 4.30311489e+00 4.30475378e+00 4.30825949e+00 4.31428719e+00 4.31862116e+00 4.32192421e+00 4.32486725e+00 4.32910061e+00 4.33202744e+00 4.33468246e+00 4.33893824e+00 4.34237146e+00 4.34766626e+00 4.35214615e+00 4.35409117e+00 4.35574436e+00 4.35996056e+00 4.36265802e+00 4.36708117e+00 4.37149620e+00 4.37539577e+00 4.37829494e+00 4.38231611e+00 4.38707256e+00 4.39053822e+00 4.39313507e+00 4.39716530e+00 4.40076780e+00 4.40465689e+00 4.40668201e+00 4.40956402e+00 4.41296196e+00 4.41721249e+00 4.42109776e+00 4.42510128e+00 4.42763853e+00 4.43049812e+00 4.43417883e+00 4.43679857e+00 4.44115829e+00 4.44704533e+00 4.44939804e+00 4.45292664e+00 4.45527887e+00 4.45928144e+00 4.46245193e+00 4.46748877e+00 4.47076607e+00 4.47418165e+00 4.47764778e+00 4.48211861e+00 4.48459721e+00 4.48600483e+00 4.49040174e+00 4.49403620e+00 4.49705172e+00 4.49993181e+00 4.50183344e+00 4.50513744e+00 4.50755405e+00 4.51046276e+00 4.51339579e+00 4.51746511e+00 4.52238941e+00 4.52520561e+00 4.52843809e+00 4.53471565e+00 4.53835344e+00 4.54287529e+00 4.54632950e+00 4.55031729e+00 4.55364323e+00 4.55700016e+00 4.55940199e+00 4.56399822e+00 4.56804228e+00 4.56937408e+00 4.57519674e+00 4.57842159e+00 4.58165312e+00 4.58394766e+00 4.58820772e+00 4.59357119e+00 4.59840012e+00 4.60087061e+00 4.60473824e+00 4.60743713e+00 4.61066341e+00 4.61425924e+00 4.61850071e+00 4.62265539e+00 4.62618732e+00 4.63164425e+00 4.63456917e+00 4.63749933e+00 4.63981295e+00 4.64329529e+00 4.64611244e+00 4.65229082e+00 4.65523958e+00 4.65956163e+00 4.66434145e+00 4.66854763e+00 4.67430305e+00 4.67661238e+00 4.68183088e+00 4.68679142e+00 4.68953371e+00 4.69568253e+00 4.69852638e+00 4.70559931e+00 4.70907784e+00 4.71596050e+00 4.71941471e+00 4.72339153e+00 4.72760105e+00 4.73082495e+00 4.73375368e+00 4.73775101e+00 4.74230957e+00 4.74456549e+00 4.74787474e+00 4.75166702e+00 4.75556564e+00 4.76048946e+00 4.76385403e+00 4.76783133e+00 4.77320242e+00 4.77655935e+00 4.77885199e+00 4.78243780e+00 4.78714991e+00 4.79070473e+00 4.79259300e+00 4.79639101e+00 4.80111694e+00 4.80450630e+00 4.80750275e+00 4.81363964e+00 4.81791830e+00 4.82073641e+00 4.82393074e+00 4.82829714e+00 4.83514595e+00 4.83836079e+00 4.84314108e+00 4.84740448e+00 4.85217428e+00 4.85511827e+00 4.85859585e+00 4.86250019e+00 4.86701488e+00 4.87167931e+00 4.87910080e+00 4.88705063e+00 4.89034176e+00 4.89459085e+00 4.90060997e+00 4.90459299e+00 4.90915108e+00 4.91294241e+00 4.91874790e+00 4.92329502e+00 